{"layers":[{"out_depth":1,"out_sx":28,"out_sy":28,"layer_type":"input"},{"sx":6,"sy":6,"stride":1,"in_depth":1,"out_depth":16,"out_sx":27,"out_sy":27,"layer_type":"conv","l1_decay_mul":0,"l2_decay_mul":1,"pad":2,"filters":[{"sx":6,"sy":6,"depth":1,"w":{"0":-1.359819237646933e-22,"1":-4.536335890053163e-21,"2":-7.49071212378027e-21,"3":-1.852177645346739e-21,"4":-4.193317579161958e-21,"5":-2.2166116691607882e-21,"6":-3.6118244623795895e-21,"7":-5.820286505714925e-21,"8":2.720076440820328e-22,"9":-1.806055837185547e-21,"10":-5.076296491483444e-22,"11":-1.0592010100052165e-21,"12":-8.12576740289931e-21,"13":-7.265340945584013e-22,"14":-1.896946485123389e-21,"15":-1.840812497029233e-21,"16":-3.9981253275415515e-22,"17":-2.2043157684642973e-21,"18":-1.74909091407841e-21,"19":-9.033184010489108e-22,"20":-2.919620505642966e-21,"21":-2.1573413574433828e-21,"22":-1.96529833035103e-21,"23":-2.5108682963388994e-21,"24":8.064637153953758e-23,"25":-1.849288936689255e-21,"26":-2.1654525833249712e-21,"27":-1.361407350757897e-21,"28":-1.5445030866780307e-21,"29":-1.8396020763763794e-21,"30":-4.77553609124956e-21,"31":-2.5472597247346206e-22,"32":-8.033196541966455e-22,"33":-1.8927195055440387e-21,"34":-1.3910420030889673e-21,"35":-3.470024512763091e-21}},{"sx":6,"sy":6,"depth":1,"w":{"0":-4.6269184934186774e-7,"1":-3.864812815927789e-7,"2":-4.6925213436478777e-7,"3":-4.0305066611179705e-7,"4":-4.5925106402159387e-7,"5":-8.985516029190434e-7,"6":-4.813842596145849e-7,"7":-8.141007635530802e-7,"8":-9.335889614099583e-7,"9":-6.642231690359244e-7,"10":-8.217896555894679e-7,"11":-6.34172139805243e-7,"12":-2.541081526791889e-7,"13":-7.621441220458192e-7,"14":-3.1206370741692116e-7,"15":-5.147720043698681e-7,"16":-0.0000011451754810152537,"17":-0.0000010539498670351213,"18":-0.0000022782504704976433,"19":-5.239187290862335e-7,"20":-9.591034048870751e-8,"21":-1.609246261451006e-8,"22":-8.239042620140616e-7,"23":-0.0000010120111324216214,"24":-2.103449167881143e-7,"25":-9.358548759174115e-7,"26":-2.2137205992257003e-7,"27":-3.1713249498300355e-8,"28":5.167426706828187e-8,"29":-9.968943473986438e-7,"30":-5.240923332881651e-7,"31":-0.000001846194478469468,"32":-4.876973657847144e-7,"33":-4.400932730454538e-7,"34":-3.2768844843436927e-7,"35":-0.000001587179245097524}},{"sx":6,"sy":6,"depth":1,"w":{"0":-0.009060731946575338,"1":-0.09763595603604551,"2":-0.07597166530577429,"3":-0.05330893527766169,"4":-0.08546627744018208,"5":-0.0455517617646334,"6":-0.02165687482011991,"7":-0.011807695316412157,"8":-0.05289999197974972,"9":-0.14490875752176852,"10":-0.12443569444391787,"11":-0.1753896926047512,"12":-0.09262781850467244,"13":0.004370675184429052,"14":-0.0029841023804757353,"15":-0.04611719244186554,"16":-0.0355108041561623,"17":-0.011836389479837452,"18":0.004560460629917312,"19":0.040271812109156244,"20":0.03511985786028343,"21":0.04963588136710429,"22":-0.07035388953267713,"23":-0.057115839680188525,"24":0.07390181444464795,"25":-0.03667151360880903,"26":-0.004765680286828778,"27":0.05247027060576345,"28":-0.05829549116930231,"29":-0.11397828400136051,"30":-0.06891272177247161,"31":-0.01576640081705667,"32":0.004680189101562894,"33":0.040432853747717316,"34":0.06307841274181371,"35":0.05772904643660143}},{"sx":6,"sy":6,"depth":1,"w":{"0":-2.1063471122394767e-7,"1":6.026696351633115e-9,"2":-3.056512330150495e-7,"3":-1.0454613372922939e-7,"4":-0.0000016694524190716621,"5":-0.000001501606448522308,"6":-9.785472532949053e-7,"7":-2.310257692321918e-7,"8":-1.901408274507732e-7,"9":-5.412667899761673e-7,"10":-6.789324151955557e-7,"11":-2.998169903602519e-7,"12":-0.0000012389091045643337,"13":-7.379865509751947e-7,"14":-6.262341420261316e-7,"15":-3.574340381654357e-7,"16":-3.9356720164389127e-7,"17":-3.9640008818432684e-7,"18":-6.603497702680472e-7,"19":-1.0869619197316957e-8,"20":-5.3423282441888054e-8,"21":-4.5617624959409964e-8,"22":-7.360134506326818e-8,"23":-2.483938163180859e-7,"24":-7.765030232505005e-7,"25":-2.0012072795395027e-7,"26":-7.396599742907975e-8,"27":-5.842995411432272e-9,"28":-6.782968336884377e-8,"29":-3.9998891430427795e-7,"30":-1.0622259437803667e-7,"31":-7.897017912927926e-7,"32":-4.1865766446720417e-7,"33":-6.482705869518021e-7,"34":-6.026834482662291e-7,"35":-9.783110503542076e-8}},{"sx":6,"sy":6,"depth":1,"w":{"0":-4.1219223291826336e-16,"1":-4.844661326413585e-16,"2":-1.7943646088461924e-16,"3":-5.00767039416871e-17,"4":-8.627493654813831e-17,"5":-3.9534850265197364e-16,"6":-1.1469523480650658e-15,"7":-5.588255919876954e-16,"8":-2.5629778488933765e-16,"9":-8.505052667792098e-17,"10":-1.405023015547598e-16,"11":-3.521922023752403e-16,"12":-1.0095210339917627e-15,"13":-6.903601880681134e-16,"14":-3.889922467531977e-16,"15":-1.7811375958508235e-16,"16":-1.1855150280813686e-16,"17":-2.573781310957925e-16,"18":-9.289098373173767e-17,"19":-6.821806016617927e-16,"20":-4.944726477085093e-16,"21":-2.217218955462745e-16,"22":-1.5737958116159128e-16,"23":-6.538869475643048e-16,"24":-2.0179144402513134e-15,"25":-6.22453356187048e-16,"26":-4.28584566070968e-16,"27":-6.44563801342934e-16,"28":-8.457055090169758e-16,"29":-3.639728479983359e-16,"30":-1.4383508992978016e-15,"31":-9.825419796862e-16,"32":-9.939534825887313e-16,"33":-8.207833217271503e-16,"34":2.139469858367967e-17,"35":-1.8848918384343038e-15}},{"sx":6,"sy":6,"depth":1,"w":{"0":-0.023030931011174066,"1":0.02972819518358488,"2":0.013367870568089583,"3":0.04433745257543995,"4":0.06290809412378685,"5":0.10777551704594894,"6":0.011666198993524349,"7":0.02781990209062198,"8":-0.027920713903281928,"9":-0.057168704298415446,"10":-0.03505132700914393,"11":0.03369233268794759,"12":-0.0759826920475343,"13":-0.0006477060330525204,"14":0.00006109786920647955,"15":0.018532727690611126,"16":-0.10455983981136634,"17":-0.1154254043290641,"18":-0.052969625959725083,"19":-0.007963171570056781,"20":-0.03647956798078752,"21":-0.019360081920034165,"22":-0.0209004259089546,"23":-0.15305086602595905,"24":-0.004476524783069756,"25":-0.0758971673650218,"26":-0.0867803489972656,"27":-0.0722387318960931,"28":0.01554315590534589,"29":-0.13435690220873048,"30":-0.03480198205792352,"31":-0.022939107415394344,"32":-0.09278520632080073,"33":-0.02530468935066802,"34":-0.016522523641016293,"35":0.043524454163548755}},{"sx":6,"sy":6,"depth":1,"w":{"0":-4.570465266042525e-18,"1":-8.596147656825059e-18,"2":-9.659753534350448e-18,"3":-5.329725526887014e-19,"4":-7.419156915554066e-18,"5":-3.3582610204586706e-18,"6":-5.931367928950186e-18,"7":-3.3318269279132466e-18,"8":-5.094423346321531e-18,"9":-5.641713175397973e-18,"10":-5.817527401331322e-18,"11":-3.525352376547954e-18,"12":-7.315791094142955e-18,"13":-7.156739304414078e-19,"14":-2.600806581416638e-19,"15":-3.247599078571651e-18,"16":-6.600599837066373e-18,"17":-8.212296363438406e-18,"18":-6.390917499514861e-18,"19":-6.288412381067696e-19,"20":-2.2718434150082344e-18,"21":-6.251968004553708e-18,"22":-1.164371191449903e-17,"23":-6.679946922906149e-18,"24":-8.252378533496878e-18,"25":-4.157539572272855e-18,"26":-6.539733956094544e-18,"27":-3.9414724481131506e-18,"28":-7.277860065669113e-18,"29":-6.15153251167722e-18,"30":-1.1127898318943439e-17,"31":-8.528994345704791e-18,"32":-3.017852067440897e-18,"33":-4.191739705369356e-18,"34":-7.718360377881137e-18,"35":-1.200043188222181e-17}},{"sx":6,"sy":6,"depth":1,"w":{"0":-0.06429021164959056,"1":-0.011232979718247727,"2":-0.0030210792325283376,"3":-0.019798007525705572,"4":-0.009838347321028654,"5":-0.00671335643983461,"6":-0.024743574401472727,"7":-0.03144713610956844,"8":-0.02691302292824532,"9":-0.018032179190210034,"10":-0.03793669889925677,"11":-0.03777935751466461,"12":-0.017178796903384263,"13":-0.0019246772676457346,"14":-0.03946896453202431,"15":-0.06361180781127071,"16":-0.0285768480177664,"17":-0.01972678280315782,"18":-0.0326220296238459,"19":-0.07046990548313083,"20":-0.05735807529737806,"21":-0.028787915217894654,"22":-0.04579134121053858,"23":-0.07098398736652398,"24":-0.06485258914335111,"25":-0.07936375422989786,"26":0.014620767829883143,"27":0.01656182738686671,"28":-0.051872693771563116,"29":-0.08994189381048491,"30":-0.05177203536083281,"31":-0.10403723363565613,"32":-0.08888041560376037,"33":0.0799645782115138,"34":0.0444450062248598,"35":-0.10617374110122425}},{"sx":6,"sy":6,"depth":1,"w":{"0":-4.875124718582853e-12,"1":-3.463153877917203e-12,"2":-1.6803837052116105e-11,"3":-3.70127962911884e-14,"4":-1.2653829776025875e-11,"5":-3.981053061310166e-12,"6":-5.561650716931308e-12,"7":-3.665866381277581e-12,"8":-4.5426356109938765e-13,"9":-7.625756765002005e-12,"10":-1.0771734533407762e-11,"11":-4.0815287412471746e-12,"12":-3.946598977091754e-12,"13":1.821124287803523e-13,"14":-1.2062939952388936e-12,"15":-2.693977552650252e-13,"16":9.671035056127432e-15,"17":-4.088545394116502e-12,"18":-5.320933043511596e-13,"19":-1.3002650871920518e-12,"20":-5.5175726661921116e-12,"21":-3.3514294524965358e-12,"22":-3.3920801201354463e-13,"23":-3.462148734558957e-12,"24":-4.169840129285441e-12,"25":-4.5553876371886225e-12,"26":-2.5126602830378595e-12,"27":-2.10861293801424e-11,"28":-1.4200692711268537e-11,"29":-3.442968252841442e-12,"30":-5.6043488989370376e-12,"31":-1.469992077165453e-11,"32":-3.095250908332788e-11,"33":1.9177333319840013e-13,"34":-1.4523237189788029e-11,"35":-1.7993826481397877e-11}},{"sx":6,"sy":6,"depth":1,"w":{"0":-3.594141914650924e-17,"1":-4.2530427778380275e-17,"2":-3.8122182486365734e-17,"3":-3.823636380265387e-17,"4":-1.806657893536959e-17,"5":-2.0082108119922503e-17,"6":-2.2593036176193227e-17,"7":-7.895163203181547e-18,"8":-3.069120223040496e-17,"9":-2.862093791193402e-17,"10":-1.3802953551129946e-17,"11":-1.6616175809485385e-17,"12":-6.989446833862746e-17,"13":-8.963605662295842e-18,"14":-6.070503356447557e-17,"15":-1.0280363997950626e-17,"16":-1.6130021259817176e-17,"17":-1.7095066407427536e-17,"18":-4.019649460953306e-17,"19":-4.517910347645268e-17,"20":-3.81527460795942e-17,"21":-2.3741460920627837e-17,"22":-1.4497828487360993e-17,"23":-2.0561662890811092e-17,"24":-1.3393105379977623e-17,"25":-2.9265372952065e-17,"26":-2.4994898292355556e-17,"27":-1.541167630074424e-17,"28":-1.6500440399293883e-17,"29":-1.4066621146429544e-17,"30":-2.0412290871557683e-17,"31":-2.901984538085257e-17,"32":-2.3781193564949433e-17,"33":-1.8522206737221804e-17,"34":-1.614700651958314e-17,"35":-2.0825394593274473e-17}},{"sx":6,"sy":6,"depth":1,"w":{"0":-1.4567292541042292e-22,"1":-1.749262407687129e-22,"2":-1.5910889919493563e-22,"3":-2.4811438836086597e-22,"4":-8.965782418758984e-23,"5":-2.201384326931691e-22,"6":-7.377732642447722e-23,"7":-2.8677228938851973e-23,"8":-3.5338315236173185e-23,"9":-2.1742458690576465e-23,"10":-2.658289422457519e-23,"11":-6.971373407345284e-23,"12":-6.900003792269349e-23,"13":-5.3330127512672356e-24,"14":-1.5968110869995022e-23,"15":-6.687712227207753e-23,"16":-7.047135663070631e-24,"17":-2.3128524849935097e-23,"18":-8.15690453851764e-23,"19":-5.583361771502672e-23,"20":-1.3022541606016095e-22,"21":-1.8215003291425173e-22,"22":-3.0980279340630285e-23,"23":-6.752102261195364e-23,"24":-2.900239290781366e-23,"25":-3.7297979243864815e-23,"26":-8.450187726976486e-23,"27":-1.3600152289008295e-22,"28":-1.2865355984797685e-22,"29":-1.8003661284372372e-22,"30":-1.1457769899953924e-22,"31":-2.0687961620740435e-22,"32":-2.1566049811357708e-22,"33":-1.9626726714309404e-22,"34":-2.009926084798504e-22,"35":-1.5960744744619262e-22}},{"sx":6,"sy":6,"depth":1,"w":{"0":-5.900350092460923e-24,"1":-4.467361642883369e-24,"2":-6.90623384328767e-25,"3":-2.3875247478775054e-24,"4":-2.390382815796424e-24,"5":-9.920951364082565e-24,"6":-5.967656153985724e-25,"7":-5.212505065528998e-25,"8":-1.5618470498265688e-24,"9":-4.466024635456956e-25,"10":-2.928686350033373e-24,"11":-6.342941498692004e-24,"12":-1.0485137799952099e-25,"13":-7.883770276855266e-25,"14":-1.9444873969189665e-24,"15":-2.304640476252961e-24,"16":-9.784567058184082e-25,"17":-1.6007968016929649e-24,"18":-1.5260543405686354e-24,"19":-2.8704124817655732e-24,"20":-5.714414178768397e-24,"21":-5.347193173640543e-24,"22":2.643792513458522e-26,"23":-4.959601864184848e-24,"24":-2.1922387113012188e-24,"25":-2.972244431464166e-23,"26":-2.839672782683583e-24,"27":-6.929024791160742e-24,"28":8.624406978372143e-25,"29":-4.410756202686437e-24,"30":-2.923418874174118e-23,"31":-7.862666674532562e-25,"32":-3.1931670144253566e-23,"33":-1.2462291547233692e-23,"34":-4.946419026753161e-24,"35":-7.974863008603227e-24}},{"sx":6,"sy":6,"depth":1,"w":{"0":-0.05193096500437101,"1":-0.05022360065571357,"2":-0.04104678071226647,"3":0.05981163741314431,"4":-0.023190777893539453,"5":-0.2549869355052132,"6":-0.04210587468799948,"7":-0.024613522793915935,"8":-0.03476104336983946,"9":-0.006068572841836762,"10":0.0236202991482635,"11":0.003755221529448044,"12":-0.037699322754893176,"13":-0.017749133302516703,"14":-0.07185458580040778,"15":-0.04049860390893903,"16":0.09238353217028512,"17":0.11198858600912978,"18":-0.02445856130043661,"19":-0.010396388597445908,"20":-0.011198972725482202,"21":-0.0887156074984479,"22":-0.06618021787520756,"23":-0.0921582148299631,"24":-0.016080075916667734,"25":-0.025300525698202788,"26":-0.04163798658106789,"27":-0.029849260387328713,"28":0.005903607635941231,"29":-0.07623314409666865,"30":-0.03726590331521837,"31":-0.04840965695419198,"32":-0.05336820874488696,"33":-0.049774490493708565,"34":-0.031247041510417482,"35":-0.1140408441902039}},{"sx":6,"sy":6,"depth":1,"w":{"0":-3.736528914457382e-12,"1":-1.6338856859183844e-12,"2":-2.8138158611454342e-12,"3":-1.6883021577466793e-12,"4":-4.430988617119576e-12,"5":-2.350769171134725e-12,"6":-4.975223008626723e-12,"7":-6.457958522568038e-12,"8":-4.53829766695691e-12,"9":-5.519819247681348e-12,"10":-1.9710367019083523e-12,"11":-3.33521659278998e-13,"12":-1.4374142374584308e-12,"13":-1.710101588944775e-12,"14":-1.5180733575104182e-12,"15":-3.376873143031756e-12,"16":-1.6273525568554532e-13,"17":-2.421158874862501e-12,"18":-3.5282366518943813e-12,"19":-5.894027549170727e-13,"20":-6.3468346568894e-12,"21":-6.180469362132119e-12,"22":-2.205668478519517e-12,"23":-3.2875239424371272e-12,"24":-2.626409145101223e-12,"25":-2.216594696828687e-13,"26":-2.380266141880556e-12,"27":-4.271566235451742e-12,"28":-4.739634934491538e-12,"29":-3.806930444347482e-12,"30":-5.0315485542696105e-12,"31":-2.8982917091595393e-12,"32":-3.4367792820513203e-12,"33":-5.968251978547472e-12,"34":-5.172003770665987e-12,"35":-5.5323801732916265e-12}},{"sx":6,"sy":6,"depth":1,"w":{"0":-0.002900676115483942,"1":-0.05734536765746775,"2":-0.10005702324456604,"3":-0.030130451289463383,"4":-0.04603560455707783,"5":-0.12142585138495339,"6":-0.10211798606514925,"7":-0.06472950127113067,"8":-0.021507261553154803,"9":0.004495579706468132,"10":-0.019167524409461567,"11":0.049863402223706686,"12":-0.022518550629171324,"13":-0.03238838534136611,"14":-0.032815245030229055,"15":0.0034814306203356238,"16":-0.01697902234822042,"17":-0.10663246528654356,"18":-0.04566264773014886,"19":-0.04144963995381844,"20":-0.03003187513901611,"21":-0.010041678275632024,"22":-0.010608753741397135,"23":-0.04381968242671628,"24":-0.029404227633744607,"25":-0.07831015933218793,"26":-0.10088407484942927,"27":-0.009261254060190382,"28":-0.21838226719601828,"29":0.012426701212141542,"30":0.060840582754182165,"31":0.036145766052925535,"32":0.016365298033592598,"33":-0.13794644684460483,"34":-0.1175361014420034,"35":0.07596457245313867}},{"sx":6,"sy":6,"depth":1,"w":{"0":0.0786819888093203,"1":-0.0004258257464394738,"2":-0.13103197446404444,"3":-0.08914875326444725,"4":-0.10035567430642243,"5":-0.07629165077786512,"6":-0.07184960997851307,"7":-0.024163419136127108,"8":-0.05622228157317441,"9":-0.01011190650716038,"10":-0.0015278904664744212,"11":0.014380800663774576,"12":-0.06800591098552615,"13":-0.01674137255402833,"14":-0.019711547420873252,"15":0.013499286071463213,"16":0.028924970779046995,"17":0.005850820632745003,"18":-0.1005764848725645,"19":-0.02880210068596506,"20":-0.026170363956422017,"21":-0.00821171550919771,"22":0.0094873362038916,"23":-0.1448878285559334,"24":-0.055553344238252374,"25":-0.03589642635187519,"26":-0.024294336354288345,"27":-0.02515754189299956,"28":-0.10065594505657492,"29":0.05018807471134349,"30":-0.14010614581643482,"31":-0.013846758051768935,"32":-0.016229028433597557,"33":-0.065711628743231,"34":-0.05775639713032664,"35":0.023422779058700265}}],"biases":{"sx":1,"sy":1,"depth":16,"w":{"0":-0.050113879915809734,"1":-0.07166226624615135,"2":0.35288580015540866,"3":-0.016482890180571055,"4":-0.20864687478224916,"5":-0.16296841908009843,"6":-0.002186837530556682,"7":-0.47614966566135264,"8":-0.10131602306133848,"9":-0.004293672904842031,"10":-0.0012362947426496304,"11":-0.12596894063882014,"12":0.9810262003594037,"13":-0.012968778076719681,"14":-0.00870715302526091,"15":1.1137681895129616}}},{"out_depth":16,"out_sx":27,"out_sy":27,"layer_type":"relu"},{"sx":2,"sy":2,"stride":2,"in_depth":16,"out_depth":16,"out_sx":13,"out_sy":13,"layer_type":"pool","pad":0},{"sx":6,"sy":6,"stride":1,"in_depth":16,"out_depth":20,"out_sx":12,"out_sy":12,"layer_type":"conv","l1_decay_mul":0,"l2_decay_mul":1,"pad":2,"filters":[{"sx":6,"sy":6,"depth":16,"w":{"0":1.0838922595069835e-20,"1":-6.808979036488952e-7,"2":-0.03214136827755508,"3":7.838046304591385e-7,"4":4.728846330128373e-16,"5":-0.014168030444112486,"6":-2.8102004948625357e-18,"7":0.04270634611707424,"8":-5.045944826116419e-14,"9":-2.117916786806021e-17,"10":-8.099672519773504e-23,"11":1.2247053342866814e-24,"12":-0.027450954967311442,"13":-5.947008550274411e-13,"14":0.08642036023143955,"15":0.01610748848467835,"16":3.620763557684851e-21,"17":-0.0000010097151171329869,"18":-0.12328450217086999,"19":-8.199523816206336e-7,"20":4.1335691881185176e-16,"21":0.04275565697987331,"22":-5.92554102681431e-20,"23":-0.014686364728226067,"24":-3.729626713499345e-12,"25":-3.913686149145074e-18,"26":-4.813054662531602e-23,"27":3.3129387547863596e-24,"28":-0.015140765299467134,"29":3.547132357474645e-12,"30":-0.11353811779637256,"31":-0.09110333423690327,"32":-2.4769173343781886e-21,"33":-8.253071772446996e-7,"34":-0.0970455281564859,"35":-3.7239437371109887e-7,"36":8.359282638665509e-17,"37":-0.020175589590423478,"38":-3.899860290369056e-18,"39":0.01681560750224618,"40":-8.088741805416192e-13,"41":-4.0524019600531873e-19,"42":1.0655981817422768e-23,"43":7.560224131902615e-25,"44":0.01996188060806215,"45":2.825373879854493e-12,"46":0.011417214954400592,"47":0.05278075492349932,"48":-1.481564827002584e-21,"49":-3.8281041460055704e-7,"50":-0.08651564111137232,"51":-2.4301810991626183e-7,"52":-5.260824564464479e-16,"53":-0.003053656013578934,"54":-9.501969223574666e-18,"55":0.013554041413548167,"56":2.828821129153035e-14,"57":1.580413004486002e-17,"58":-5.504478990468688e-24,"59":9.724336695921261e-25,"60":-0.057887415735999946,"61":-1.6977544614957604e-12,"62":-0.05641323744161142,"63":0.01852151019740016,"64":-1.9002216485031293e-22,"65":3.096226533909363e-8,"66":-0.0834049101004226,"67":-2.8468605198513336e-8,"68":-1.9597264386105014e-16,"69":0.03923409445034579,"70":-2.9159320640363465e-18,"71":-0.016514451587168345,"72":-1.5079136669719253e-12,"73":5.3643039268104925e-18,"74":2.651221371755239e-23,"75":-3.169790981201684e-26,"76":-0.08162504506443996,"77":2.1568458638799316e-12,"78":-0.07419665248572876,"79":-0.07215706350143669,"80":-9.128275868925776e-22,"81":-1.6391697755325367e-7,"82":-0.021042730749306824,"83":-4.172517817473578e-7,"84":-2.1006579211086117e-16,"85":-0.11488756028743392,"86":-4.591648201163092e-18,"87":0.011855683602211653,"88":4.44165804301346e-13,"89":6.007408978618633e-18,"90":-8.777165584562553e-24,"91":1.7867561944438577e-25,"92":-0.028210485648943708,"93":-5.91675256606075e-13,"94":-0.08433214000332184,"95":0.04264364568713244,"96":4.322580644056889e-21,"97":-0.0000010588723996958967,"98":0.013155519344177134,"99":2.3117820578438314e-7,"100":3.102451794809834e-16,"101":-0.03303419159183394,"102":3.5414081327575044e-18,"103":0.04621565210062454,"104":2.189778067374524e-12,"105":-1.809591886900399e-17,"106":1.115960055000375e-25,"107":2.8737754240952687e-24,"108":0.01782624777189926,"109":-3.232139699417246e-13,"110":-0.09311822502763845,"111":-0.05085822919068211,"112":-6.596570028852065e-22,"113":-4.478804579790822e-7,"114":-0.046424216411488,"115":-3.74706387530123e-7,"116":1.1099608543710655e-16,"117":-0.03309587033853613,"118":8.08246185058506e-18,"119":-0.04012663550967253,"120":-4.4128178991669483e-13,"121":1.5152783963793392e-17,"122":6.129436621019532e-23,"123":-2.109909042727431e-24,"124":-0.020681726572591798,"125":2.490024534644661e-12,"126":-0.17720348651225937,"127":0.0402932117568258,"128":-3.340233199955755e-22,"129":-1.5929549398514136e-7,"130":-0.01104328259541206,"131":-7.550361222233532e-8,"132":3.3947230600827917e-16,"133":-0.007155694584325046,"134":7.005298129313938e-18,"135":0.0050963542275604175,"136":1.241720096976898e-12,"137":9.72377471154558e-18,"138":-3.1894188827956594e-25,"139":-2.0896338060187256e-24,"140":0.0297991738368366,"141":2.7674162939391606e-12,"142":-0.09912720881875714,"143":0.06757735321409174,"144":-5.360960150865044e-22,"145":-8.011604649723829e-7,"146":0.004161907780415449,"147":-4.24785587261513e-7,"148":2.3126152159726417e-16,"149":-0.014179984347971401,"150":8.957956355194216e-19,"151":-0.04272905684212119,"152":6.637661607789943e-13,"153":7.144478123071132e-18,"154":1.1713539316260698e-22,"155":-4.922284308439095e-27,"156":0.03163289811834764,"157":1.2112516511517522e-13,"158":-0.026863475061932755,"159":0.007304089063636474,"160":-5.033381829099564e-22,"161":-7.780591738538067e-8,"162":-0.08712847926204545,"163":-8.685715777650524e-7,"164":-6.706839081617117e-16,"165":0.03753206513345287,"166":1.99714947982617e-18,"167":0.09219259577314383,"168":-5.1401983190269895e-12,"169":2.315311721971246e-18,"170":5.330564331842085e-23,"171":-8.716672982615614e-25,"172":-0.049363779727627254,"173":1.1311198654505691e-13,"174":-0.027180750470638896,"175":0.0804916670787213,"176":3.094224788367254e-22,"177":-1.8465095490801005e-7,"178":-0.14263151419329237,"179":-3.6122746298497763e-7,"180":2.976709970276561e-17,"181":0.032532490000575565,"182":4.156570392307241e-18,"183":0.04274739613533727,"184":3.538743488262937e-13,"185":4.424253502630902e-18,"186":4.0280078533771704e-23,"187":1.8003155488871925e-24,"188":0.13405360213579498,"189":-2.6492084248892055e-12,"190":0.012053072858008227,"191":0.1266380378075041,"192":1.6407641380942979e-21,"193":-0.0000013740213319262027,"194":0.01572633494111818,"195":-7.723516856844776e-7,"196":-3.9790798658396917e-17,"197":-0.10351878019833778,"198":6.549452802293385e-18,"199":0.010054485425114286,"200":5.663752668318984e-13,"201":-4.904169271345797e-18,"202":-2.9514596133252077e-24,"203":-2.8534179742100547e-24,"204":0.007670210603703491,"205":-1.2257217891163846e-12,"206":-0.06579483234168983,"207":-0.06484904364526163,"208":-1.3996880372609126e-21,"209":-5.303973778693429e-7,"210":-0.021080266337765895,"211":-2.3342081071159967e-7,"212":2.727364967446344e-16,"213":-0.10292826116779241,"214":1.1015663053389684e-17,"215":0.08431126694977391,"216":-2.7656324586279416e-13,"217":3.561768937459144e-17,"218":-1.6986340831250172e-23,"219":-1.3062686125230206e-25,"220":0.07108310570936946,"221":2.1745491368091674e-12,"222":-0.05516889484826526,"223":0.01299805383114207,"224":7.083600602977537e-22,"225":-1.3661246287227041e-7,"226":0.09883159924376725,"227":-3.9718042212206063e-7,"228":1.0300028292461088e-17,"229":0.03547828705570688,"230":9.406431622423321e-18,"231":0.02611783173851324,"232":-3.1323905284434996e-12,"233":7.763296649155686e-18,"234":6.369633156809125e-23,"235":-9.862344029546374e-26,"236":0.04590918603326682,"237":-8.189246751191787e-13,"238":-0.1917400683508111,"239":0.001436908980640853,"240":-4.849540962694422e-22,"241":-8.998876262302781e-7,"242":-0.004120512947108482,"243":-9.300517783256639e-7,"244":2.4639776919383556e-16,"245":-0.026978287803965113,"246":2.927571526762245e-18,"247":-0.031669157648189276,"248":5.9454469469364475e-12,"249":2.5751929804838348e-17,"250":1.9876016320985858e-23,"251":-1.8559593340600021e-25,"252":0.012097278337466167,"253":-2.0532405928653189e-13,"254":-0.06662911020054182,"255":0.013484818669708444,"256":-3.7044216797081113e-22,"257":-7.089276730454319e-8,"258":0.033198773271437616,"259":-7.82237379710328e-7,"260":-2.0515684227930743e-16,"261":0.00675058681605435,"262":-8.33889529009311e-19,"263":0.0202634281104633,"264":-2.2243775008727596e-12,"265":5.850731725401013e-18,"266":-9.134506286844783e-24,"267":8.285507857846454e-26,"268":0.04604523945261182,"269":2.0229253440621622e-12,"270":-0.07367247623814503,"271":0.03356279185160225,"272":-3.923493618654878e-22,"273":-4.589765500022991e-7,"274":0.060535263334303285,"275":-6.663667991603749e-7,"276":-1.1171020915805473e-16,"277":0.04410013183085865,"278":3.0122178531316043e-18,"279":0.034378634817656205,"280":1.2571496112803783e-12,"281":-3.3936357674954335e-18,"282":3.668261053563613e-23,"283":1.865721496998028e-24,"284":0.09851061248239348,"285":-2.078356029170088e-12,"286":0.02558698014633314,"287":0.0119917518205111,"288":-4.36745342760815e-21,"289":-0.0000011736167053676411,"290":0.07343463704961652,"291":-4.6177091733776003e-7,"292":2.150851933052663e-16,"293":-0.0976145639667894,"294":7.040037678648224e-18,"295":-0.028326388322309923,"296":-1.0274053664891165e-11,"297":-2.4358688386575643e-18,"298":-8.954448482950775e-23,"299":6.8688721573195705e-25,"300":-0.06990662874305972,"301":-4.028708557497919e-13,"302":0.023083455788295067,"303":-0.09630495267380006,"304":-1.4002867956768896e-21,"305":-7.389209822868728e-7,"306":0.040680640173269535,"307":-4.666454683823424e-7,"308":-7.321047692369396e-16,"309":0.012569283531390788,"310":8.426238521291839e-18,"311":0.039749774429971275,"312":-3.5529373024915767e-12,"313":1.2686328642022055e-17,"314":3.147763688187158e-23,"315":1.329585380707887e-24,"316":0.02479858386256679,"317":1.6048230515916124e-12,"318":-0.013944929215133059,"319":-0.07819613488461573,"320":-3.9907849264600207e-22,"321":-1.65841479295648e-7,"322":0.07195981911345238,"323":-2.840128704180371e-7,"324":-2.190804349023949e-16,"325":-0.049936122521652505,"326":8.740018830719358e-18,"327":-0.022410654188698875,"328":-1.4176241967216439e-12,"329":1.7851240495892206e-17,"330":9.214616532381714e-23,"331":1.043847006422181e-24,"332":0.03195612508354189,"333":1.7904981735520269e-12,"334":-0.0671910874348905,"335":-0.06436477067607221,"336":-8.81455638093615e-22,"337":-1.4812601731426412e-7,"338":0.046494247996280554,"339":-5.810967148761193e-7,"340":2.595110927569338e-16,"341":-0.016304800858225478,"342":9.314636025905238e-19,"343":0.031208114256189676,"344":-3.3775279251037535e-12,"345":1.0389033202159269e-17,"346":6.963336285810903e-23,"347":8.977754083850606e-25,"348":-0.11555375966033476,"349":1.7337194671299146e-12,"350":-0.12959771731371528,"351":-0.026196579525055833,"352":-1.369407700029703e-21,"353":-4.060726411424501e-7,"354":0.0717958967224827,"355":-4.554900235763904e-7,"356":-2.9660321754016366e-16,"357":0.004638066821166142,"358":-3.551166977224359e-18,"359":0.012409692760416655,"360":-2.854736902716162e-13,"361":-1.3030154553840524e-18,"362":-3.548182466054515e-23,"363":-1.8464567965198013e-25,"364":-0.10103194213254688,"365":-9.664715300998576e-13,"366":-0.08082233676416176,"367":-0.14944834059525647,"368":-8.510567572079804e-22,"369":-8.687311004100991e-7,"370":0.09737429478554718,"371":-9.655431525494236e-7,"372":-2.1067475386946422e-16,"373":0.052586651032931635,"374":2.2036373958319576e-18,"375":0.01753292867011956,"376":1.2233128230657314e-11,"377":-6.440124350911574e-18,"378":-7.387638427245686e-23,"379":3.793174410645675e-25,"380":-0.06591324026186726,"381":2.9617426022162456e-12,"382":0.07288526749578299,"383":-0.0936082722870327,"384":-1.6552981553315605e-21,"385":8.454231590405082e-7,"386":-0.05349076984395705,"387":-5.872162640134294e-7,"388":-1.7347096718643534e-17,"389":-0.15818313680820514,"390":4.766470942024977e-19,"391":0.019932267821246036,"392":1.9331964888426663e-12,"393":1.390672730214025e-17,"394":-2.4890294888663085e-23,"395":2.1920937417291462e-24,"396":0.0304063867590589,"397":1.1416003269409788e-12,"398":-0.11174903426860824,"399":-0.06146161956430237,"400":-7.864746363816741e-22,"401":-1.5743214234375444e-7,"402":-0.11378292278760145,"403":-3.9590497762396454e-7,"404":5.671818257338405e-16,"405":-0.1638630371867,"406":3.766750322510291e-18,"407":0.012045144449221749,"408":3.4086416873526654e-12,"409":2.9868308202739205e-18,"410":4.623324862264724e-23,"411":-2.2827858717975594e-24,"412":-0.07959615711806771,"413":1.786084725479303e-12,"414":-0.13654634130206003,"415":-0.0800356759792092,"416":-1.8438758666431977e-21,"417":4.81540870545668e-7,"418":-0.046636132097292185,"419":6.798422873857667e-8,"420":3.6605825543842635e-17,"421":-0.026718203282783338,"422":5.246418894644258e-19,"423":-0.0009260471160306052,"424":1.9118240342154388e-12,"425":-1.7591735136022206e-17,"426":3.5733977662844126e-23,"427":-2.7083281569660896e-25,"428":-0.021397633795429322,"429":2.843136730665101e-12,"430":0.009290418769673299,"431":-0.08808051557902977,"432":5.046250779861165e-22,"433":4.12792444139223e-7,"434":0.01633587334218103,"435":3.08264297473252e-7,"436":-1.8884407021860246e-16,"437":-0.01923471322180367,"438":2.208028904525697e-18,"439":-0.0038405014111153797,"440":5.326088861873521e-12,"441":-3.2115901579200067e-18,"442":1.0365128063635561e-22,"443":7.256491682526009e-25,"444":0.06631067026987417,"445":6.083756728908351e-13,"446":-0.10337636943443798,"447":-0.08053482826805844,"448":-1.504360361354232e-21,"449":-5.539195108295866e-7,"450":0.026811132489176423,"451":-2.8188289108442847e-7,"452":2.1260869473180813e-16,"453":-0.02518393685006533,"454":-5.1132528828951334e-18,"455":0.004042539518484087,"456":8.361998462585957e-13,"457":-7.698987322258811e-18,"458":1.8309200550289742e-24,"459":1.0980799432366299e-26,"460":-0.07802985912310864,"461":1.2176381855711128e-12,"462":-0.09620851240039184,"463":-0.1525694862207537,"464":-1.3166474205238873e-21,"465":-8.687935565330298e-7,"466":0.03956201775254411,"467":-4.3249406858619123e-7,"468":5.423323503675499e-16,"469":-0.019109708363637762,"470":-1.6409842128442276e-18,"471":0.007612837670894483,"472":3.351383061942451e-12,"473":-6.497404866097334e-18,"474":2.2722044728312248e-24,"475":5.301892799504512e-24,"476":-0.047426706703108217,"477":-1.5367330226487252e-13,"478":-0.06454848898282008,"479":-0.13670055142452994,"480":2.7758653081140215e-22,"481":0.000001948756662488698,"482":-0.08312503502241557,"483":-4.684882764463582e-9,"484":-4.537943318341211e-16,"485":-0.010580502937582196,"486":-1.2079428986853695e-17,"487":-0.013206556007663616,"488":-3.3939919815538334e-13,"489":-3.030420311556449e-18,"490":-1.2624142482759958e-22,"491":7.783097197265785e-24,"492":0.03039076775502633,"493":-2.223631049848152e-12,"494":-0.03542285292376573,"495":-0.18111764613409156,"496":-1.968019434255869e-21,"497":-6.384302758390017e-7,"498":-0.200940476294164,"499":3.5092071291165346e-8,"500":-5.296335519112726e-16,"501":0.15887245069456024,"502":-4.110490933541335e-18,"503":-0.009439334605878801,"504":5.856129507006243e-13,"505":-3.1191688453292403e-18,"506":-9.230576687060432e-23,"507":-1.1686875080225918e-25,"508":0.09609228657507897,"509":3.351848085280066e-13,"510":-0.11153705908876062,"511":-0.07362805113480052,"512":-2.2817769016386723e-21,"513":-5.21483873967991e-7,"514":-0.08859619812706807,"515":5.38033641936994e-7,"516":-5.905338156755141e-16,"517":0.01974260600691757,"518":-5.752996712104388e-18,"519":-0.016382861873552562,"520":-4.713196986763317e-12,"521":-3.684051159435364e-17,"522":1.7261997089285094e-23,"523":-1.625262699842451e-25,"524":0.08478161599338756,"525":-2.3931408121847904e-13,"526":-0.06294229549227227,"527":-0.037441127071782834,"528":-1.734039334004094e-21,"529":-4.5782982711483424e-7,"530":-0.07836462799452347,"531":5.005600441324709e-7,"532":-1.0878182589978089e-16,"533":0.08233101450409021,"534":-1.4052594720532199e-18,"535":0.013973076499230441,"536":4.5822972029267096e-12,"537":9.891395239972348e-18,"538":3.987708727062328e-24,"539":2.5220896497850964e-24,"540":0.13622457408655397,"541":3.201484891222011e-12,"542":-0.03763196328762394,"543":0.021165020236133713,"544":-7.705736805856495e-22,"545":-3.99834683598775e-8,"546":-0.12441025281054133,"547":7.934175998472338e-8,"548":4.908040609976058e-16,"549":0.019125077271670572,"550":-7.673713149777946e-18,"551":0.003713520336777769,"552":-1.564525129679715e-12,"553":-4.909286805381616e-18,"554":-2.496390407242993e-23,"555":-9.72225749970671e-25,"556":-0.004067210915658232,"557":1.0296041473650096e-12,"558":-0.07388430810895223,"559":-0.01999104733802548,"560":-6.165736503048484e-22,"561":-3.1368304088336807e-7,"562":-0.01670401140952253,"563":1.4246672522450818e-7,"564":7.889709275604199e-16,"565":0.04823580425872105,"566":-4.641063641768997e-18,"567":0.017967014393717007,"568":-2.0402023282302145e-12,"569":1.432081326960869e-18,"570":5.159848162542372e-23,"571":7.185499230378047e-25,"572":-0.0830141299270965,"573":2.0395646524594842e-13,"574":-0.08102496344099835,"575":-0.16835424807526916}},{"sx":6,"sy":6,"depth":16,"w":{"0":-1.2260766816775767e-21,"1":2.7319516526601055e-8,"2":-0.058535874506501336,"3":5.890093755956199e-7,"4":7.965717060832923e-18,"5":0.030195228318168545,"6":-3.896714607869511e-18,"7":0.022297577493878302,"8":2.5638492837210696e-12,"9":-1.781595330817746e-17,"10":-7.643777068234281e-23,"11":-2.8554236876844248e-24,"12":0.08478650178273867,"13":-9.88733628194542e-13,"14":-0.04708923292326144,"15":0.03969282866551965,"16":1.2082471128399865e-20,"17":-9.418115323284061e-7,"18":-0.09365800081424387,"19":9.98413288166597e-7,"20":-2.9951463474528624e-16,"21":0.08601915165309336,"22":-3.783046366457439e-18,"23":-0.003908612912837768,"24":-2.9237849397932196e-12,"25":-1.6909330358615265e-18,"26":-1.0161767849499773e-22,"27":9.429499441216822e-25,"28":-0.04072704365859769,"29":3.5436129416436144e-12,"30":-0.02878284125729181,"31":0.07706264030520195,"32":7.994589020911646e-21,"33":8.616004295935953e-7,"34":-0.01632985595564503,"35":6.069842424619765e-7,"36":-4.932252226389092e-16,"37":0.11120193969579892,"38":-1.5556455104635856e-18,"39":-0.03922674336279691,"40":-1.7811394691238106e-12,"41":-1.0051219259786043e-17,"42":7.33814435660327e-23,"43":8.740405623275674e-25,"44":-0.04254422909787017,"45":2.4454853697097665e-12,"46":-0.009742110292070899,"47":0.09581042238485664,"48":2.5953046205972755e-21,"49":7.213375948942049e-7,"50":0.09686314973889014,"51":8.227785368932131e-7,"52":9.125081007357593e-18,"53":0.03595508956442581,"54":-1.5793312491896872e-18,"55":-0.020241413183450956,"56":3.910116805196882e-13,"57":-1.1271334502917778e-17,"58":7.98361334213788e-23,"59":1.0101665791226647e-24,"60":-0.0977159866063255,"61":1.5301456859874167e-12,"62":0.0849659571722925,"63":0.11219877227307037,"64":-2.7745731483503505e-21,"65":4.4414073442632727e-7,"66":0.021455380083812366,"67":7.681770600306225e-7,"68":-6.29072528217855e-17,"69":-0.09441056600667914,"70":-2.2268280339380004e-18,"71":-0.03321616676925995,"72":-1.6245259021358476e-12,"73":-2.2236731902051025e-17,"74":1.1666363064448936e-22,"75":1.816305148096894e-24,"76":-0.08513178621575726,"77":9.13435566460343e-13,"78":-0.012035593817648663,"79":-0.04952529640523956,"80":-3.419647063864132e-21,"81":2.3782926524683063e-7,"82":-0.04652165000188092,"83":2.2062835140982957e-7,"84":2.43457886678632e-18,"85":-0.03729857113952041,"86":-9.855845670797393e-18,"87":-0.053839974475609294,"88":-2.418507603179448e-13,"89":-3.644932364017149e-17,"90":-4.663332244219411e-23,"91":-4.3454008325736594e-26,"92":-0.05026228171017932,"93":6.355402546452609e-13,"94":-0.01756294676755287,"95":-0.07611412142193377,"96":-9.087411995932081e-21,"97":0.0000010788099542398518,"98":-0.07747027877355864,"99":-1.185642439296567e-7,"100":2.751989993439082e-16,"101":0.13608071695642998,"102":-3.4341441220433593e-18,"103":-0.008880956215688985,"104":-4.8695540948267134e-12,"105":-5.790040275787135e-20,"106":-3.8776565315644777e-23,"107":-1.0841095653346481e-23,"108":0.09627257136813118,"109":-8.192919732249275e-15,"110":-0.046743796890158264,"111":0.001281947745343254,"112":-6.66665165770353e-21,"113":-3.090068511894654e-7,"114":-0.04267294958421032,"115":1.9556401899817198e-7,"116":1.5002364955450236e-17,"117":0.01581648358067653,"118":-2.061013312958482e-18,"119":-0.0028844024860652092,"120":2.522876657635656e-12,"121":1.7299411561361082e-17,"122":-6.136952791128847e-23,"123":2.1273442467099786e-24,"124":0.08139187938179576,"125":3.6723234520879065e-13,"126":-0.06862968007787713,"127":0.03567140160533519,"128":-6.93214713884135e-21,"129":0.0000014061444241555044,"130":0.07738224887003847,"131":6.586458837973377e-7,"132":-8.454501454281135e-16,"133":-0.010183505130310319,"134":-6.229306456668428e-19,"135":0.014865396287967072,"136":-1.9138124745063122e-12,"137":2.019781107646853e-17,"138":2.5653100610629682e-23,"139":-7.112378020931167e-25,"140":0.017631680745804856,"141":5.020577606788249e-13,"142":0.1456769755867217,"143":0.1432171415772176,"144":-2.7315357691846298e-21,"145":0.0000016934882164184366,"146":-0.026789581817343252,"147":0.0000015488587165857773,"148":-3.792818615436513e-16,"149":-0.07563808141864774,"150":-2.465633090911226e-19,"151":-0.031894450697054356,"152":-3.1592750067980592e-12,"153":4.792587611642501e-18,"154":1.1488449965247147e-23,"155":-2.6503156311302257e-25,"156":-0.027645205281544644,"157":-7.957657204276437e-13,"158":0.09210452709875476,"159":0.02344790945716812,"160":4.316000542613138e-22,"161":5.041438936578918e-7,"162":-0.19555443401231673,"163":3.924559563121195e-7,"164":-1.7376733381258825e-16,"165":-0.11747652573879437,"166":-1.812743042168277e-18,"167":0.020182859571473647,"168":-5.763979058764459e-13,"169":-3.640587985161634e-18,"170":-4.983864930021169e-25,"171":-1.0402028333585238e-24,"172":-0.040651340635830535,"173":9.16111026364118e-13,"174":0.013571135068484279,"175":-0.05059332251253745,"176":3.779903168840213e-21,"177":-3.377823060265802e-7,"178":-0.14664466460160053,"179":-1.6345580115443933e-7,"180":-2.1878905389412168e-16,"181":-0.030297313255931265,"182":-4.910877345322415e-18,"183":0.005781485974237042,"184":-4.073076867026375e-13,"185":-1.0918970597155121e-17,"186":-9.504068688189334e-23,"187":-1.3346945962539147e-24,"188":-0.02628377313506647,"189":9.753816435463772e-13,"190":-0.0064935613896453595,"191":-0.022750774753661034,"192":-6.568154744652318e-21,"193":2.0490558415521783e-7,"194":-0.0083460928840216,"195":-0.000001185962549845345,"196":9.048334891495373e-16,"197":-0.054242666892212965,"198":-3.918244736698231e-18,"199":0.0014892332694451586,"200":-5.2407344986316924e-12,"201":9.297910918976141e-18,"202":-5.145093731070896e-24,"203":-1.1422609221285071e-24,"204":0.037156638701377656,"205":4.1570327941832027e-13,"206":-0.07085511389339282,"207":-0.018221484894505917,"208":-6.015767382326124e-21,"209":4.426818775282685e-7,"210":0.0849929647945412,"211":-2.829231913919186e-7,"212":-7.37030233784199e-16,"213":-0.03692091512849795,"214":4.707520234878589e-18,"215":0.007680835106600515,"216":-2.9920311162218696e-12,"217":5.501799405216584e-18,"218":-3.387492182665116e-23,"219":8.266950284187198e-25,"220":-0.043522300511169086,"221":1.0795142888254416e-12,"222":0.025986224899974906,"223":-0.028705372449835603,"224":-1.4961206028717712e-21,"225":0.0000015666986357382932,"226":0.0725598012731755,"227":-2.766534859813111e-7,"228":3.9339633560930937e-16,"229":-0.10265795873248906,"230":5.109614174435986e-18,"231":-0.009969113071098046,"232":1.533907025103803e-12,"233":-2.7164546095316436e-17,"234":-2.144397757243169e-23,"235":-7.707618013601218e-25,"236":0.029367623188813273,"237":-3.549164929844171e-12,"238":0.09386081871695955,"239":0.02482234580158407,"240":-1.039355759404411e-21,"241":7.020945879104622e-7,"242":-0.09828685412376953,"243":6.516323434934931e-7,"244":-5.651800814544356e-16,"245":-0.1269265737796396,"246":-1.012186374164759e-19,"247":-0.005555416793944646,"248":-2.7623386226322796e-12,"249":3.5163208820691605e-18,"250":-5.2209606130954313e-23,"251":-2.2188388918707043e-24,"252":-0.11081480700173738,"253":-1.1296589516191687e-12,"254":-0.02354405852228705,"255":-0.1527055486670055,"256":7.084828892468281e-22,"257":-5.630478187658625e-7,"258":-0.14072386939761064,"259":-1.480870805491479e-7,"260":5.873358662702742e-17,"261":-0.05498204976910636,"262":-9.491815862661292e-19,"263":-0.00038386213886121604,"264":5.000880400789054e-12,"265":1.7463371428726163e-18,"266":-3.7237394919279263e-23,"267":-2.3122882321264583e-24,"268":-0.05037035861712891,"269":-1.2405957354446383e-12,"270":-0.018810111470899657,"271":-0.03318102866152623,"272":-6.103420825108908e-23,"273":-1.018077835543171e-7,"274":-0.1065219765361662,"275":7.24567544900733e-9,"276":-1.4186361627982872e-16,"277":-0.009572634934852189,"278":-1.0737261669618365e-17,"279":-0.015735709423444332,"280":5.543282687889714e-12,"281":-1.9786917684987488e-17,"282":-1.5428654855771894e-22,"283":-1.3868457529716324e-24,"284":-0.022218065545052443,"285":-5.108625738570727e-13,"286":-0.05462142129562418,"287":-0.021199034640002126,"288":-1.2993163463436532e-21,"289":-3.78174780531112e-7,"290":-0.06627565991912093,"291":-7.6514521870366e-7,"292":-1.0466092045558522e-16,"293":-0.11986951079751702,"294":-2.636241503035098e-19,"295":-0.01047133570228914,"296":1.1551230200266462e-12,"297":6.447668615279413e-18,"298":-3.591252139742653e-23,"299":1.4075977938275894e-25,"300":0.04458591396827164,"301":-2.2442315801866326e-12,"302":-0.04805458011840538,"303":-0.04037258776282275,"304":-1.5008826617374242e-21,"305":4.384709386953605e-7,"306":-0.12555550662891274,"307":-4.697203342836794e-7,"308":-1.5407951560961773e-17,"309":-0.06405494444188967,"310":-2.476082549325335e-19,"311":-0.015983560444789335,"312":-2.9479835473054805e-13,"313":6.435874589655866e-18,"314":-4.167932394521275e-23,"315":-2.4468015431363106e-24,"316":-0.07858487287703432,"317":-6.011097373132521e-13,"318":-0.06723794749777495,"319":-0.057212010518901804,"320":-5.079320035682891e-22,"321":-4.071510338024719e-7,"322":-0.022905883443110585,"323":-1.9136926034599233e-7,"324":-2.0189794212588046e-16,"325":-0.06946029019268794,"326":9.965578313605837e-18,"327":0.005329003492063978,"328":-1.0285140058322889e-12,"329":1.4352711404214542e-17,"330":-7.131040735269346e-24,"331":3.895482357279822e-25,"332":-0.056259479544949795,"333":-1.6087870115367182e-12,"334":-0.028592742900354476,"335":-0.08161606290551525,"336":-1.9735261088433322e-22,"337":-5.073433239494925e-7,"338":-0.055655546506138916,"339":1.6013330080446685e-8,"340":-1.1089078614670307e-15,"341":-0.029818602263457585,"342":3.908871573894585e-18,"343":-0.006038918663985205,"344":-3.868279424542739e-12,"345":1.5367083749014847e-17,"346":8.443991009365488e-24,"347":-9.745906213900962e-25,"348":-0.04275554709524844,"349":-2.3067735181403954e-12,"350":-0.05190173839851548,"351":-0.08206034498675147,"352":-1.0820783870725398e-21,"353":-7.435885010599305e-7,"354":-0.020203638814766507,"355":-1.298630275054189e-8,"356":-8.116996597135596e-17,"357":-0.12357118781644823,"358":6.918630836163702e-18,"359":-0.018875654755213942,"360":7.186740046241267e-12,"361":5.652391501779614e-18,"362":-4.919104541662589e-23,"363":-1.1979613722543958e-24,"364":-0.03847544351690055,"365":-2.2905249505408395e-12,"366":-0.03319563759041808,"367":-0.07570660956671123,"368":-1.8880810957669686e-21,"369":-2.4667235470536265e-7,"370":-0.15104561455380897,"371":2.0098318890163832e-7,"372":-1.4454279180093024e-16,"373":-0.045541031276026406,"374":-4.941808455904782e-18,"375":0.00035108297583216096,"376":2.1488357757612794e-11,"377":-1.456044530167688e-17,"378":-1.6007686525897832e-22,"379":-1.295890552742401e-24,"380":-0.0185397365635156,"381":-2.3392042474578724e-12,"382":-0.033993711073301,"383":-0.07606373721313714,"384":1.834317623566438e-21,"385":8.0088267446582e-9,"386":-0.024462574595271395,"387":-6.581405881233304e-7,"388":-8.978917458322224e-16,"389":-0.142880954918812,"390":-3.458443268425919e-19,"391":-0.0003973214768476738,"392":-2.6566924040355366e-12,"393":2.0676807026999457e-17,"394":1.2582624975046229e-23,"395":-2.7620722607909997e-24,"396":0.018672795295108423,"397":-2.6566261030489614e-12,"398":-0.0289474893337488,"399":-0.0798150802011477,"400":2.1004358460651155e-21,"401":-3.136566860035041e-7,"402":0.0010012575217502938,"403":-6.032219438073057e-7,"404":-2.2533956610249426e-16,"405":-0.14451037189885269,"406":-2.106372579363774e-19,"407":0.016525559085569075,"408":1.9038478982084015e-13,"409":8.327559378057754e-18,"410":-1.0026302248870136e-23,"411":3.7634702010915996e-24,"412":0.017110940500878392,"413":-4.840641274949795e-13,"414":-0.006322541244384414,"415":0.05397122858925077,"416":-9.133366162852194e-22,"417":7.47069613374731e-8,"418":-0.03401443981304884,"419":-0.0000011682804541334495,"420":-3.935071453716216e-18,"421":-0.0937366030940997,"422":4.030944272619978e-18,"423":-0.0031453552731169746,"424":-2.5613581118949098e-14,"425":2.7828037748899627e-17,"426":7.885063393645147e-24,"427":7.749073303416929e-24,"428":-0.11370088735028545,"429":-1.4556929069301e-12,"430":-0.040257748023216564,"431":-0.03981103537074809,"432":-3.682846046073598e-21,"433":1.265068523500567e-8,"434":-0.04080528933030827,"435":-9.513040118760971e-7,"436":-2.8308816074443504e-16,"437":0.022568661950161877,"438":2.562979378330653e-18,"439":-0.00289046897126137,"440":-2.882295468636108e-12,"441":2.5866481143464388e-17,"442":4.405041830198217e-23,"443":3.520956138370815e-24,"444":-0.07711837100204533,"445":7.579502291814406e-13,"446":-0.06186553410935224,"447":-0.12739116025383207,"448":-1.3967231508493967e-21,"449":-1.362776270528733e-7,"450":-0.006231327301667241,"451":6.536439305354265e-8,"452":9.87877087271881e-17,"453":-0.03609973546732957,"454":4.2286930251556965e-18,"455":0.007202369244548621,"456":1.491140217875098e-11,"457":3.9680451422524725e-18,"458":-3.134096484594661e-23,"459":-1.6653843442419343e-24,"460":0.03126071222975025,"461":2.4155047687622015e-13,"462":-0.007629298289119372,"463":-0.12324833350212444,"464":3.3691552948607645e-22,"465":6.701762334817998e-7,"466":0.09696719776870218,"467":5.2107179030817016e-8,"468":7.748065549362035e-16,"469":-0.03673198805808328,"470":-2.495348653192549e-18,"471":-0.004124140282930561,"472":8.917036059935076e-12,"473":-9.18628884937007e-18,"474":-1.4509691461842561e-22,"475":3.1807731816688288e-24,"476":-0.00202695015411283,"477":-1.52223346826315e-12,"478":-0.002759263707001677,"479":-0.1360427903965475,"480":2.0325726224594916e-21,"481":8.613804954295163e-8,"482":0.01765990735398036,"483":2.1621729418507555e-7,"484":2.1279263067017503e-16,"485":-0.08093284952381857,"486":-4.1886047638182114e-20,"487":-0.01030180387455186,"488":-3.664543525836544e-12,"489":2.1457097201428486e-17,"490":-2.825726435554777e-23,"491":3.34005417260648e-24,"492":0.045243396815668066,"493":-1.9481827847707934e-12,"494":-0.13700891971444248,"495":0.03007474407272545,"496":-1.3259437216671777e-21,"497":5.6960679176925975e-8,"498":-0.004593423621118047,"499":-5.51994118404187e-7,"500":-6.701051709334782e-17,"501":-0.10997693491194814,"502":-2.6139578325952998e-18,"503":0.011379210520021533,"504":-9.527614699822936e-13,"505":1.6463328943222942e-17,"506":-4.425999935769392e-23,"507":4.0630062590207246e-24,"508":0.02892073131311979,"509":-6.981922437806566e-13,"510":-0.08051981456228051,"511":-0.01924222521926635,"512":-1.8933560061455537e-22,"513":9.002636558872906e-7,"514":-0.04096427863209957,"515":2.2301019085464336e-7,"516":-3.580511646234073e-16,"517":0.02773038470967202,"518":2.677462459537437e-19,"519":-0.01302923550313186,"520":2.836962373049895e-13,"521":-1.1288775941085344e-17,"522":-4.7168691285798706e-23,"523":2.89597000260008e-24,"524":0.07812317257658853,"525":-3.263954686788029e-13,"526":-0.06927955650607107,"527":-0.03876630091285339,"528":-4.312880535791736e-21,"529":-2.2833901092571868e-7,"530":-0.06960327268630612,"531":-1.6300894144105508e-8,"532":-6.541486566237905e-16,"533":0.06013960804674073,"534":-9.604960619700984e-19,"535":-0.020609384927051663,"536":9.405940424880179e-13,"537":1.5690261483800298e-17,"538":-2.319486542827475e-23,"539":-1.6493153541228792e-24,"540":0.09287184557134957,"541":-9.582630239153917e-13,"542":-0.07703277975938384,"543":-0.005564982783396508,"544":-1.6639296268094043e-21,"545":-1.9435566875786956e-8,"546":-0.04763193131015091,"547":-2.7900515848576897e-7,"548":-1.4856153079185144e-16,"549":0.12246263453789408,"550":5.276180351502747e-18,"551":0.02108490188384166,"552":-3.2298259602423243e-12,"553":-1.2883958679177766e-18,"554":-6.682502629576941e-23,"555":-9.95310871729946e-25,"556":0.0710366057941878,"557":-1.907063633655144e-12,"558":0.0014868626625470533,"559":-0.10152107403424056,"560":-2.7942967409357284e-21,"561":1.423181440074802e-7,"562":0.01702389181213313,"563":-1.991547789689224e-7,"564":-9.383943526525175e-17,"565":0.07494829872275083,"566":-2.3303780962752903e-18,"567":0.005303349663778167,"568":5.601845286492916e-13,"569":1.445000153141892e-18,"570":-2.1332503371109097e-22,"571":7.355027759129658e-24,"572":0.047461323961763655,"573":-8.367811206695429e-13,"574":-0.02220553991820547,"575":-0.12484611378168341}},{"sx":6,"sy":6,"depth":16,"w":{"0":1.123585916076998e-21,"1":2.1852856056348774e-9,"2":5.335941158517188e-7,"3":-2.482891141745636e-7,"4":1.6453497285553768e-17,"5":-1.8081297662397557e-7,"6":-3.3239805242202503e-19,"7":8.73194130335191e-8,"8":1.0513585282928207e-12,"9":1.6470618385683572e-17,"10":4.8831995868278413e-23,"11":6.83255220891828e-26,"12":-2.0528473899241615e-7,"13":6.971142392563068e-13,"14":7.199292294704752e-7,"15":8.447872416727892e-7,"16":1.0702947922251475e-21,"17":2.009702503555031e-8,"18":-4.4032503677253515e-7,"19":1.9843930183688843e-7,"20":-2.0778451334074207e-16,"21":-1.519325832945979e-7,"22":-4.0083312483692985e-19,"23":-3.328779114837078e-7,"24":-8.249058812884913e-12,"25":-2.574100432103794e-18,"26":6.035775462366894e-23,"27":-9.991112457566461e-27,"28":-0.0000010385890174852656,"29":-1.5431292859074032e-12,"30":3.704885943681785e-7,"31":-6.783406294633219e-7,"32":7.277241226624071e-22,"33":8.110106243001735e-8,"34":-3.1796513538131995e-7,"35":-2.1302827937167766e-7,"36":-5.3402722042415e-16,"37":-1.6480554732568483e-7,"38":-2.9879197780819068e-18,"39":4.4557817944320973e-7,"40":1.4205757976016686e-12,"41":4.767694511820385e-18,"42":7.83016434748879e-23,"43":-1.5447046593171578e-26,"44":-7.510077988939483e-7,"45":-1.2675394878232784e-13,"46":4.6851978866298967e-7,"47":-4.593385058955646e-7,"48":-6.027209341245593e-22,"49":-4.538625768315703e-7,"50":-3.8057292231441104e-7,"51":-1.83133730372944e-9,"52":-2.053364524653747e-16,"53":-1.8204411109157937e-8,"54":-3.2962397607490034e-18,"55":-5.0787783618760114e-8,"56":-6.945572772769571e-12,"57":-5.291735821065359e-18,"58":9.141647542028823e-23,"59":-2.8959675731053635e-27,"60":-8.033384034469118e-7,"61":-4.1777857037170687e-13,"62":-2.470535781693481e-7,"63":-6.39823544102238e-7,"64":4.979187632909589e-22,"65":-4.1237438788714193e-7,"66":-1.9947116370905137e-7,"67":3.186432902972075e-7,"68":-2.7011922357561483e-16,"69":5.832664794936478e-8,"70":-2.593163846095301e-18,"71":-5.467961125767704e-8,"72":-1.1701168820589146e-13,"73":-9.30477807157778e-18,"74":6.542663815371411e-23,"75":-1.65506959384769e-25,"76":-5.720168860229687e-7,"77":-2.3527896201597348e-12,"78":-3.2006846630579965e-8,"79":-2.3739262684125238e-7,"80":1.1644831315314074e-21,"81":6.873502301744302e-7,"82":4.3843778154135215e-8,"83":0.0000012583454919259828,"84":-6.115316071730953e-16,"85":-3.4071935919002754e-8,"86":7.157845044189825e-19,"87":5.443151987269742e-7,"88":-8.882281334098086e-14,"89":2.000901687720183e-17,"90":4.6188288059822574e-23,"91":-1.616951104802673e-25,"92":-3.9855140016846175e-7,"93":-6.106005280607641e-13,"94":3.9448127844645915e-7,"95":-6.378267307103136e-8,"96":1.1440108847600068e-21,"97":3.2459192105501145e-8,"98":1.2642160821185763e-7,"99":-1.107084742767141e-7,"100":2.237517982063833e-16,"101":-2.634157714045056e-7,"102":-4.90936890397869e-18,"103":-3.725738481488268e-7,"104":2.0572959926453427e-12,"105":3.0517858781802272e-18,"106":5.812976070417738e-23,"107":-8.928761940844221e-27,"108":-6.025465429155759e-7,"109":1.5318618676437166e-12,"110":4.6797629927658787e-7,"111":5.356787714273104e-8,"112":-1.3315780105688002e-21,"113":-1.8096697323333388e-7,"114":-2.5773069172968806e-7,"115":-2.3557633465778965e-7,"116":-1.2003931532923317e-16,"117":-2.2519006215473985e-7,"118":-4.182017011892195e-18,"119":-2.411314673202008e-7,"120":2.7347723042171918e-14,"121":6.8000800906424086e-18,"122":1.5460092861784577e-23,"123":2.1153381187099375e-27,"124":-5.536346135854101e-7,"125":-2.4847017516859535e-12,"126":-3.388301364590268e-7,"127":-2.7898934740828507e-7,"128":-8.078049358511414e-22,"129":-5.215174096420896e-8,"130":-1.922917985808195e-7,"131":1.1334417020774096e-7,"132":1.014015217986736e-16,"133":-1.8846346110372635e-7,"134":-2.4993575153917844e-18,"135":1.7408032434587245e-7,"136":8.518244163947885e-13,"137":3.6399152917076824e-18,"138":-1.8325417180332846e-23,"139":-9.163798189806656e-28,"140":-4.2832995693488294e-7,"141":-3.568951946360239e-13,"142":-4.59686710288957e-7,"143":-2.482832043429155e-7,"144":-5.174626214693896e-22,"145":-2.146609901623264e-8,"146":-1.2919502401529609e-7,"147":-4.2970612896176836e-7,"148":-5.814405239296733e-17,"149":-1.7262983584954158e-7,"150":-1.3454112232577334e-18,"151":5.42221240065763e-8,"152":2.657259145744017e-13,"153":-5.7991714128696536e-18,"154":2.435092807758088e-24,"155":-1.068542389316941e-26,"156":-2.964633374797698e-7,"157":-1.3393109018108256e-12,"158":-2.4173780737666674e-7,"159":-3.0987384372483137e-7,"160":-1.3766091666887443e-21,"161":-1.2101305665245576e-7,"162":1.9595522690988738e-7,"163":3.30356192848972e-7,"164":-4.657626736876534e-17,"165":-4.441360214681684e-8,"166":-2.432383630654268e-18,"167":1.1548919299531793e-7,"168":-1.3348195343955888e-12,"169":1.4264402630642788e-18,"170":-2.2367410320516834e-23,"171":-1.052928669431875e-25,"172":2.634734340764727e-7,"173":-1.197096205025632e-12,"174":4.4273331820350603e-7,"175":3.7702181757219595e-7,"176":5.481101556000242e-23,"177":-3.252759176372611e-8,"178":-2.507757418722806e-7,"179":6.894355136791208e-7,"180":-5.054844457693002e-16,"181":1.5633602358524127e-8,"182":-2.598624860551159e-18,"183":3.9084817334397137e-7,"184":-1.3013395891026971e-12,"185":1.9515591406827252e-18,"186":6.978097394766718e-24,"187":-1.4209847016694528e-26,"188":-4.502776330938027e-7,"189":-3.0239783438457093e-12,"190":-4.1978243149200443e-7,"191":-3.943804264296977e-7,"192":-7.206947565250947e-22,"193":8.916790749862663e-8,"194":-3.0840141946055717e-7,"195":-1.487069853413696e-7,"196":1.6721217194748686e-16,"197":-2.5951046713965125e-7,"198":-4.024025940808989e-18,"199":-4.956206015092036e-8,"200":6.790144052339196e-14,"201":-3.903031472974067e-18,"202":9.041739770586753e-23,"203":2.4551823431855297e-26,"204":-0.0000014495116422915834,"205":-3.3919125628170304e-12,"206":6.719851821400271e-7,"207":-1.7341029978204018e-7,"208":2.4026614731052177e-23,"209":2.45158339156793e-7,"210":-2.9143637471723054e-7,"211":-1.824635370415055e-7,"212":1.2941351001679445e-17,"213":-1.891061965913229e-7,"214":-3.0796615343883653e-18,"215":-2.0168800744904454e-7,"216":-1.857786847463122e-12,"217":7.030848373823527e-18,"218":2.474630339488704e-23,"219":2.70671638588146e-26,"220":-4.781147674022993e-7,"221":-3.3423092289323598e-12,"222":-2.0904301168334122e-7,"223":-3.871680138954687e-7,"224":1.3112282722682788e-22,"225":1.5416026278614716e-7,"226":-3.1512867150469303e-7,"227":-1.1684563286871517e-7,"228":-2.770056888318038e-17,"229":-7.26914107831597e-8,"230":-2.293328284820698e-18,"231":9.235715529041932e-9,"232":-2.1128694380755062e-12,"233":6.900966932908709e-18,"234":2.4022035765663203e-23,"235":-6.271570822478855e-27,"236":-3.8856626596909177e-7,"237":3.555958787981114e-12,"238":2.949512259461259e-8,"239":-3.5181819934606115e-7,"240":-9.498685567952011e-22,"241":3.255859729203392e-8,"242":-9.025683856749379e-8,"243":-2.5496196088965466e-7,"244":-1.267177502786952e-16,"245":-1.1762872220464006e-7,"246":-2.0890340331734844e-18,"247":6.999036717519831e-8,"248":-1.7857458530121553e-12,"249":-7.71203843732073e-18,"250":9.321323643682117e-23,"251":-8.19713313328472e-26,"252":-1.3063457480219044e-7,"253":5.3839579317274515e-12,"254":-2.0589319459524782e-7,"255":-1.2791012598841473e-7,"256":-1.0677034213128291e-21,"257":8.998289755437253e-8,"258":1.1054195562919873e-7,"259":-2.8113321199622566e-7,"260":-1.3754275060415887e-16,"261":-9.530741522290872e-8,"262":-2.0681494571854633e-18,"263":1.956731312045644e-7,"264":-1.2176783582878485e-13,"265":7.822730703569868e-18,"266":7.058214621213272e-23,"267":-1.9627456334416953e-26,"268":2.530314087946284e-8,"269":1.1178791429382402e-12,"270":-2.7018722206762165e-7,"271":-8.705914997343175e-8,"272":-3.317427358401142e-22,"273":-2.39284655528556e-7,"274":-8.255721638080303e-7,"275":-1.8596163149068628e-7,"276":-3.140577952067568e-16,"277":-1.528545775615628e-7,"278":-7.089972778671782e-18,"279":2.0482846416560966e-7,"280":-7.306538121691748e-13,"281":5.247506348375197e-18,"282":1.0994221028132184e-23,"283":-2.8985278347579943e-25,"284":-0.0000010332033340329525,"285":2.3408902666721826e-12,"286":-5.395847313971863e-7,"287":-8.472846480307921e-7,"288":6.538037976734562e-22,"289":-6.587056895119831e-8,"290":-2.1919898752510694e-7,"291":-2.560123219089726e-7,"292":4.4047917716879794e-16,"293":-4.958461908845142e-7,"294":-5.034049060801562e-18,"295":-2.9200428011928287e-7,"296":7.365849054627816e-13,"297":-2.36113667920568e-18,"298":1.393833221583211e-22,"299":-1.5424170437074554e-26,"300":-9.783814927362756e-7,"301":-2.7081151689632682e-12,"302":8.003778518628841e-8,"303":-3.259065270475197e-7,"304":2.923893815870095e-23,"305":1.7889817296512645e-7,"306":-2.0050948728259357e-7,"307":-1.6731239689491288e-7,"308":1.4559242442733325e-16,"309":-1.9564896330689312e-7,"310":-1.4549483168098823e-18,"311":4.287668949411341e-8,"312":6.483237494098864e-13,"313":7.664112471029659e-19,"314":9.537832094642879e-23,"315":-1.1336557985116727e-26,"316":-3.570191784806803e-7,"317":-6.755125077982025e-13,"318":-1.5372264780964446e-7,"319":-3.096361740952998e-7,"320":-4.90834123553203e-22,"321":-6.542693698355677e-8,"322":-2.6438314072169213e-7,"323":-2.558940539453218e-7,"324":1.634906424986507e-16,"325":-1.3724336564412373e-8,"326":-1.777455476620866e-18,"327":1.0121863055983277e-8,"328":1.175790101151904e-13,"329":5.447749913353775e-18,"330":9.839715557975051e-23,"331":-2.1319022080884742e-26,"332":-3.5753418501400996e-7,"333":-1.730420918038759e-12,"334":-3.1940126591271686e-7,"335":-3.4607255001287375e-7,"336":-1.3929043135496524e-21,"337":1.6630811238925528e-7,"338":-1.1458445392164628e-7,"339":-3.868313433792063e-7,"340":1.3331552801604052e-16,"341":-5.1642286521256815e-8,"342":-2.3323661758485882e-18,"343":-1.6478671931303606e-8,"344":1.9726938484076712e-12,"345":4.682527343472312e-18,"346":9.041908624967285e-23,"347":-3.752888181620025e-27,"348":-2.1794769607020447e-7,"349":2.5032382725957463e-13,"350":1.6899682993636102e-7,"351":-2.2110846802560803e-7,"352":-1.9729872769409016e-22,"353":2.6102523236683453e-7,"354":-3.711150557268452e-8,"355":-2.76891979500322e-7,"356":2.992887245699162e-16,"357":-7.870493424258214e-8,"358":-5.312665029167407e-18,"359":9.31130166849743e-8,"360":-1.2545443170849635e-12,"361":2.1537882784636817e-17,"362":6.648128840826835e-23,"363":7.999718873468274e-27,"364":-1.4676847702249494e-7,"365":-1.1615235273667337e-12,"366":-7.145707703314918e-7,"367":-7.95673102022967e-8,"368":1.7077787111415077e-22,"369":4.931738633393599e-7,"370":-4.7539163982637984e-7,"371":-4.489996363128808e-7,"372":3.5715368960067695e-16,"373":-2.0233328008592196e-7,"374":-3.669109779309183e-18,"375":1.3045335836224553e-8,"376":-3.905523875226087e-12,"377":5.119812124615993e-18,"378":6.804894301496248e-24,"379":-2.4043455051808526e-27,"380":-0.000001017403573219399,"381":-4.1134551262163595e-12,"382":-0.0000011053678796453185,"383":-7.251724171085247e-7,"384":3.922353249852288e-22,"385":1.4726833797809326e-8,"386":3.241535488586591e-8,"387":-1.1381425093720436e-8,"388":5.363054290385258e-16,"389":-3.999800855429722e-7,"390":-6.0238520518434914e-18,"391":-2.9553179568712816e-7,"392":5.724396301135325e-13,"393":-1.5468171823014924e-18,"394":6.756773867220611e-23,"395":-3.626998456752772e-26,"396":-2.717077142254654e-7,"397":-2.048608247235779e-12,"398":-3.141086850601486e-7,"399":7.52669946608391e-8,"400":-1.07066195752702e-22,"401":1.57788985783442e-7,"402":-4.597809614132703e-8,"403":-3.0121896648234086e-8,"404":1.7837773255944215e-17,"405":-2.782017759580175e-7,"406":-2.9386919160956048e-18,"407":-9.04801435569367e-8,"408":6.025672878794164e-13,"409":-4.2382922691733794e-18,"410":4.278951409981223e-23,"411":5.474040952129694e-26,"412":-1.5170742061709742e-7,"413":-1.7655968550428643e-12,"414":-2.0041548157340955e-7,"415":-1.2724818294812048e-7,"416":-6.263932301922614e-23,"417":3.6618759896733947e-8,"418":-6.64720450955775e-8,"419":-5.392097139253884e-7,"420":-1.1778244454455238e-16,"421":5.0714043954738246e-8,"422":-1.0838254214594127e-18,"423":2.5210895691793457e-8,"424":-1.6082528416062073e-12,"425":-6.642459225147104e-18,"426":3.937749831620248e-23,"427":-6.074954624264255e-26,"428":-1.344809403607781e-7,"429":-1.271213519104977e-12,"430":-1.3496069920516997e-7,"431":-1.7178797479336985e-7,"432":-6.004378276162398e-22,"433":-5.103037907282623e-8,"434":-1.0922187781648296e-7,"435":-5.471101633819364e-7,"436":2.484101085785728e-17,"437":-1.21557248679045e-7,"438":-1.4943271555440536e-18,"439":9.867154126822785e-8,"440":-1.6616742190716332e-13,"441":5.2193390902699464e-18,"442":3.484729503114207e-23,"443":-9.804136405730369e-26,"444":-2.2589908579475706e-7,"445":-2.220660646224997e-12,"446":-6.617483496371082e-7,"447":-1.4506564740047514e-7,"448":-3.518804617992855e-22,"449":1.9267215636482466e-8,"450":-1.699417879820546e-7,"451":-2.754658576739986e-7,"452":-2.2639900556870706e-16,"453":-3.9142783557537634e-7,"454":-2.6155033324134262e-18,"455":-7.111382532425914e-8,"456":5.821071909737899e-13,"457":2.897069781513844e-17,"458":1.5503487683718047e-23,"459":1.6483628112983034e-28,"460":-2.894092609588939e-7,"461":-3.36938986438236e-12,"462":-0.0000011033797602905587,"463":-2.0588962617955324e-7,"464":1.3344492351928148e-21,"465":-3.3455860393828626e-7,"466":-5.498874946334941e-7,"467":-7.960572191320337e-8,"468":-3.3701654867099896e-16,"469":2.1911175337346904e-7,"470":-2.1256660196848034e-18,"471":-6.669334631093671e-8,"472":-1.2946128229354025e-12,"473":2.160052424611331e-17,"474":1.513956750560936e-23,"475":-4.87095320620009e-26,"476":-9.274686087918878e-7,"477":-2.3436092738130866e-12,"478":1.9808806218733884e-7,"479":-9.528325236430847e-7,"480":2.9181948592140837e-22,"481":3.0498754157708325e-8,"482":-3.6321068535014413e-7,"483":-3.724048248540787e-7,"484":-2.1712762055704518e-16,"485":5.749117602706243e-7,"486":-6.952629051661404e-18,"487":-2.1073272156198744e-7,"488":-1.9234741995790152e-12,"489":-2.3597363380819733e-18,"490":2.86699617613278e-24,"491":-1.3297571014864013e-25,"492":-0.0000012102042853226487,"493":-2.059794476521955e-12,"494":-7.526426392484929e-7,"495":-5.309363037419017e-7,"496":-7.487942626954649e-22,"497":-1.4587026115801684e-8,"498":-3.100227152158808e-7,"499":-5.701321214532295e-7,"500":-2.962792368327341e-16,"501":-2.82521171981381e-7,"502":-5.694423870741588e-19,"503":-1.2503316528543202e-7,"504":-4.911914663695513e-13,"505":-3.5317216090493795e-18,"506":2.2012585861167402e-23,"507":-6.2841054348344165e-27,"508":-5.382653600101848e-7,"509":-6.239024900183845e-13,"510":-7.256163660105056e-7,"511":-4.957264432753123e-7,"512":-4.653272034270023e-22,"513":-2.5937810882204418e-8,"514":-1.8088276539594112e-7,"515":1.8995060392979624e-7,"516":-1.0923794291957365e-16,"517":-1.1769683905194601e-7,"518":3.3129962506802226e-18,"519":-1.3705697040450072e-7,"520":-9.755440247438802e-13,"521":-3.498116640823629e-19,"522":4.094579229723582e-24,"523":7.274123331314329e-29,"524":-3.7778418851840643e-7,"525":-1.1404537475462808e-12,"526":-8.036315057622942e-7,"527":-2.8556002074675504e-7,"528":1.9722661214189783e-21,"529":-9.778401882231407e-8,"530":-1.6857978389405632e-7,"531":4.0141067641380626e-7,"532":-2.3418522677333297e-16,"533":-1.4485860077292327e-7,"534":1.1583765813555147e-18,"535":3.622955169686699e-8,"536":-7.055593686193485e-13,"537":2.6363334632018204e-17,"538":6.4979414345345794e-24,"539":-7.013635535975237e-27,"540":-3.4674981142810465e-7,"541":-1.8100710920651587e-12,"542":-4.472098204947993e-7,"543":-3.641378665135475e-7,"544":-1.0722604196201912e-22,"545":-1.1814474222192218e-7,"546":-3.2931825391064793e-7,"547":-2.4892713553630614e-7,"548":-4.140123567335778e-17,"549":1.654042591054092e-7,"550":3.3137454461043004e-18,"551":-5.352767676285927e-8,"552":-1.2432527084268787e-13,"553":3.4087202928050383e-18,"554":2.1011226458043992e-23,"555":6.56536294226228e-26,"556":-5.631706981305172e-7,"557":-2.6962048984045725e-13,"558":-9.992333543391045e-7,"559":-4.879206240742074e-7,"560":2.5079187292404306e-22,"561":1.7138459131451317e-7,"562":-4.406851357552551e-7,"563":-1.403992485213953e-7,"564":-1.5013391275869174e-16,"565":3.2771450163798483e-7,"566":6.919941079890912e-19,"567":-6.179096648301053e-8,"568":-1.8674756940068824e-13,"569":-1.187502556497411e-18,"570":1.746497788381033e-23,"571":-8.264300013213642e-26,"572":-6.33495498149751e-7,"573":7.267894117393596e-13,"574":-2.897177690040092e-7,"575":-5.89842946121301e-7}},{"sx":6,"sy":6,"depth":16,"w":{"0":1.3464267001399027e-25,"1":-7.678538464322803e-26,"2":-1.441305117454393e-25,"3":-3.055366574067112e-25,"4":-4.6515957501079715e-25,"5":-3.186896667768826e-25,"6":-1.1814386521092295e-25,"7":-7.448374107382871e-25,"8":-2.1208804892454715e-25,"9":-1.1898381842223663e-25,"10":-6.172821091280338e-26,"11":-4.398399482501931e-26,"12":-3.419016730425168e-25,"13":-2.6686385759411594e-25,"14":-4.973028712480883e-25,"15":-2.723509565599653e-25,"16":-1.8500446892557265e-25,"17":-6.886821265993619e-25,"18":-1.3865582742490805e-25,"19":-2.7197787924308724e-25,"20":-1.0089923453395379e-25,"21":-6.8764413027150005e-25,"22":-1.2352910516740095e-25,"23":-3.2032981560720994e-25,"24":1.4239876025612718e-25,"25":-1.2448816378277266e-25,"26":-7.322133635918846e-26,"27":-7.160037388097362e-27,"28":9.405511515642452e-27,"29":-1.3407846829936126e-25,"30":-6.7383987927602115e-25,"31":-6.055318213472137e-26,"32":-4.4666471185489266e-26,"33":-5.055373229845344e-25,"34":-2.924773158747821e-25,"35":7.572170906729095e-26,"36":-2.151810737193741e-25,"37":-6.36403434759468e-25,"38":-2.19283094933482e-25,"39":-4.56301061653137e-25,"40":-2.704295943029773e-26,"41":-2.3435709216378725e-25,"42":-1.0800595334675864e-25,"43":3.4564874894556246e-26,"44":-4.0402059784958083e-25,"45":-2.6957858829446437e-25,"46":1.296339191775965e-26,"47":-2.254500628723563e-25,"48":-1.3559231277747717e-25,"49":-7.3945866064812365e-25,"50":-2.6406165253624383e-25,"51":-2.1657702683546438e-26,"52":-1.146365512519936e-25,"53":-9.971211341024138e-25,"54":-1.843050736373817e-25,"55":-5.723074865619414e-25,"56":-2.1299582540055793e-25,"57":-2.0843877271437256e-25,"58":-1.4838161483267817e-25,"59":-1.4992239600067568e-27,"60":-9.894628286049758e-26,"61":-3.7245074203605906e-25,"62":-1.1577362478208013e-24,"63":-4.452213935195531e-25,"64":-5.622190570866993e-25,"65":-3.7474046720326464e-25,"66":-2.37309394908529e-25,"67":-2.4704311796533166e-25,"68":-1.7700874677229146e-26,"69":-3.7690802060013604e-25,"70":-8.819700615780287e-26,"71":-3.0119107389872373e-25,"72":-5.63381566915671e-26,"73":-1.0595167239643836e-25,"74":-1.0223641066304099e-25,"75":-5.747015845763675e-26,"76":1.474930108351838e-25,"77":-1.371194619696349e-25,"78":-1.140223576214823e-24,"79":-1.2590242824219462e-25,"80":-6.503370395831218e-26,"81":-4.860391870589214e-25,"82":-1.3081783419088032e-25,"83":-1.3673368086059735e-25,"84":9.799904652831305e-26,"85":-6.394029450234435e-26,"86":-9.889591171250271e-26,"87":2.108280965938297e-25,"88":1.6394222996420513e-25,"89":-1.0616817925807504e-25,"90":-4.048951258046168e-26,"91":-7.247954086243991e-27,"92":-6.775501386961383e-25,"93":-1.2031862094271376e-25,"94":-7.5473723875652235e-25,"95":-1.3198199733819063e-25,"96":-1.6477950868238054e-25,"97":4.060691873784834e-26,"98":-7.543789954359758e-26,"99":-2.2931983567477558e-25,"100":-1.9384634695746087e-25,"101":-4.234797881045606e-25,"102":-5.861190424826123e-26,"103":-2.5992749530117766e-25,"104":-2.82693508279532e-26,"105":-6.394550003625523e-26,"106":-4.2324575814807605e-26,"107":-5.31780639876034e-26,"108":-4.994924752192147e-25,"109":-7.587186550551912e-26,"110":-5.722391337775118e-25,"111":-1.7937911377311773e-25,"112":-3.048086569764341e-25,"113":-4.729453710849621e-25,"114":-8.766331942148341e-26,"115":-1.7396249685121894e-25,"116":-5.32960956615809e-26,"117":-4.957069249181108e-25,"118":-6.816051269159735e-26,"119":-2.5184129632059694e-25,"120":-1.6660372109990905e-26,"121":-7.425423878594508e-26,"122":-3.142441971383632e-26,"123":-1.5561720546656365e-27,"124":2.420263650911316e-25,"125":-6.987803487971623e-26,"126":8.568560919464567e-27,"127":-1.366347762332334e-25,"128":-5.060183316836535e-26,"129":-2.5490867080927855e-25,"130":-2.9746831467577876e-25,"131":-1.647710403447702e-25,"132":-1.8246760916840847e-25,"133":-1.0423082118237267e-24,"134":-1.978106131842917e-25,"135":-3.517525728996791e-25,"136":-2.277396470669623e-25,"137":-2.017413686173728e-25,"138":-1.2103214133746484e-25,"139":-5.100380897570724e-27,"140":1.7769516738943361e-26,"141":-2.4303612576375876e-25,"142":3.207986079150532e-26,"143":-2.248873995309352e-25,"144":-1.0699669225110857e-25,"145":-4.853279860206652e-25,"146":-2.1325067541692497e-25,"147":1.7864602277098825e-25,"148":2.2639172805892134e-26,"149":-6.611252009605564e-25,"150":-1.640978807079318e-25,"151":-5.29513128939411e-26,"152":-5.159837654245183e-26,"153":-1.6356742627485933e-25,"154":-9.809784157183695e-26,"155":-6.070411433480639e-26,"156":-1.424828503628216e-25,"157":-1.9536240989448288e-25,"158":-7.519033263337891e-25,"159":1.1931769953558469e-26,"160":-2.506781174522671e-25,"161":-6.6235770252898415e-25,"162":-2.4432247545927656e-25,"163":-5.574530475147045e-25,"164":-1.248827694921868e-25,"165":-3.3062227812697757e-25,"166":-1.8900950925052682e-25,"167":-4.61386017502934e-25,"168":-1.1033518916328296e-25,"169":-1.9713734552754212e-25,"170":-1.110482918348587e-25,"171":-6.415400045412807e-27,"172":-3.6304677717442023e-25,"173":-2.308539273554373e-25,"174":-1.7567854201287718e-24,"175":-3.6015712202034438e-25,"176":-3.4302545939349617e-25,"177":-3.7344637376240114e-25,"178":-1.1652850134429208e-25,"179":-6.706818008524158e-25,"180":-1.1070426839825494e-25,"181":-1.17122523726651e-25,"182":-9.050634183265558e-26,"183":8.179040910723784e-26,"184":-2.628264449134951e-26,"185":-9.318775052555188e-26,"186":-5.375094375096805e-26,"187":-1.0885802965621599e-26,"188":-1.8181004143322234e-25,"189":-1.1620025083507799e-25,"190":-1.1481133138123606e-24,"191":-7.881927462118572e-26,"192":-1.814038050138367e-25,"193":-3.99091124708927e-25,"194":-1.9930407384611513e-25,"195":-5.697303994443523e-25,"196":-1.9943067897105252e-26,"197":-3.334526347292697e-26,"198":-1.5479788227147093e-25,"199":-1.7928913925936807e-26,"200":-1.8224993661649587e-26,"201":-1.6030445081277084e-25,"202":-1.0563205780158084e-25,"203":-2.633590586172463e-26,"204":-3.3236080189505805e-25,"205":-1.8521574287440955e-25,"206":-6.947073465473937e-25,"207":-2.385009945142447e-25,"208":9.525538991512089e-26,"209":-2.1861798806359743e-25,"210":-1.638960049018764e-25,"211":-5.110691700488154e-25,"212":-2.699544732547356e-26,"213":-1.7139475493803948e-25,"214":-1.2861492654687789e-25,"215":1.6462600944057857e-25,"216":1.9213555717801837e-25,"217":-1.3351188670249095e-25,"218":-5.636160525380414e-26,"219":-1.1338501154684013e-27,"220":-3.1389253590696763e-25,"221":-1.559733490087411e-25,"222":-3.8100468097232876e-25,"223":-3.0622223069161444e-26,"224":-1.5932984629841283e-25,"225":-1.064144788525784e-25,"226":-3.6165031536796195e-25,"227":-2.406401352432668e-25,"228":-1.240419604027504e-25,"229":-2.1454104883809634e-25,"230":-2.7155031450268274e-25,"231":-2.4390124999096377e-27,"232":-1.2858405237094986e-25,"233":-2.9701671160547135e-25,"234":-1.6540842558999437e-25,"235":-1.6321638529164558e-26,"236":-4.721121229347803e-25,"237":-3.464460935583176e-25,"238":-3.173530564017611e-25,"239":-5.094763906303988e-25,"240":7.982890462501316e-26,"241":-6.455762793642623e-25,"242":-4.098057358420574e-25,"243":5.827860753195457e-26,"244":-4.134617021393015e-25,"245":-3.8369734800405404e-25,"246":-2.8754417002656942e-25,"247":-3.327345750060436e-25,"248":-3.2805782035818006e-27,"249":-3.09465461628124e-25,"250":-3.931933902863582e-26,"251":-3.0219328974456485e-26,"252":-4.740476549853817e-25,"253":-3.8819040533848717e-25,"254":-7.526711384923712e-25,"255":-5.2360565896334e-25,"256":3.286122491046953e-26,"257":-5.30617858280025e-25,"258":-3.709469071102479e-25,"259":-2.610256824783039e-25,"260":4.3300074858880416e-26,"261":-4.249516405405693e-25,"262":-2.7814756171560867e-25,"263":-2.9666674780856677e-25,"264":5.275895838445461e-26,"265":-2.979908353235954e-25,"266":-8.3815777844151e-26,"267":1.2545250349588863e-25,"268":-3.167335791079724e-25,"269":-3.330472971058442e-25,"270":-1.4877483209542104e-24,"271":-4.185098587295635e-25,"272":-3.025664781960891e-25,"273":-7.3794361382191865e-25,"274":-2.561178242766132e-25,"275":-2.0149230108427194e-25,"276":-2.728584668161684e-25,"277":-6.811261682488101e-26,"278":-1.9511935612699365e-25,"279":-3.3963411153879814e-25,"280":3.5044194167172495e-26,"281":-2.0756185158810813e-25,"282":-1.1441729791037845e-25,"283":1.8041459231839868e-25,"284":-2.2880094674596536e-25,"285":-2.825462003166668e-25,"286":-1.8155046534374336e-24,"287":-5.6832172077226e-25,"288":-1.6782903221298837e-25,"289":-6.938202966421843e-25,"290":-1.6753454687044785e-25,"291":-3.5781617600775973e-25,"292":3.2630650718156123e-25,"293":-4.297652216723148e-25,"294":-1.2559347096651409e-25,"295":-5.03669015040496e-25,"296":-9.326581252122236e-26,"297":-1.291966201255431e-25,"298":-2.7122631377929948e-25,"299":-1.2460952950768705e-26,"300":-1.6620347303197462e-25,"301":-1.467981757368802e-25,"302":-8.18770441904267e-26,"303":-2.345863439484115e-25,"304":-5.730497092329012e-25,"305":-6.5716246391257955e-25,"306":-1.7804311874642767e-25,"307":-8.779867566799189e-25,"308":-2.1849317658743737e-25,"309":-4.1198007029618447e-25,"310":-1.3106524646364273e-25,"311":2.0833022264799322e-25,"312":-9.953379672132871e-27,"313":-1.4141677520038583e-25,"314":-2.3604055757593983e-25,"315":-7.304285835125169e-26,"316":-4.0497826808877987e-25,"317":-1.6069241964859362e-25,"318":-6.477250582484098e-25,"319":-3.3424827418967056e-25,"320":-1.2816720331645874e-25,"321":-5.7462935032825e-25,"322":-3.8801314306522914e-25,"323":-4.733805076846018e-25,"324":-4.832491929602974e-25,"325":-1.5945101673195487e-25,"326":-2.9001488573122285e-25,"327":-3.3751744426142993e-25,"328":-2.462654241993973e-25,"329":-3.1366319896626443e-25,"330":-1.739291858968699e-25,"331":-1.8774794671483536e-27,"332":-1.7207313751413717e-25,"333":-3.475252413549458e-25,"334":-8.680910100323751e-25,"335":-2.2171008271463556e-25,"336":1.5593099432275698e-25,"337":-5.457659404011793e-25,"338":-4.1931624548469635e-25,"339":-2.2194125137993243e-25,"340":-1.6182597268937574e-25,"341":-4.417236654001718e-25,"342":-3.1368912876737797e-25,"343":1.3880804237567698e-25,"344":1.3732278872911717e-25,"345":-3.376803143419532e-25,"346":-1.2961147653827394e-25,"347":-7.899441639424664e-26,"348":-5.895286273324227e-25,"349":-3.8091000491013615e-25,"350":-4.425188971590782e-25,"351":-3.715201445269244e-25,"352":-4.676351056763214e-27,"353":-2.784131223959772e-26,"354":-4.032180719845907e-25,"355":-3.016527167930249e-25,"356":-5.705808817279615e-26,"357":-6.411406697848467e-25,"358":-3.050145188707921e-25,"359":-6.201014382461593e-26,"360":1.4608749220552429e-25,"361":-3.3886575612038517e-25,"362":-1.9023170964596733e-25,"363":1.8855532199361845e-25,"364":-4.547482422271829e-25,"365":-3.7216521533623065e-25,"366":-1.0939736175624903e-24,"367":-4.125338352058586e-25,"368":1.1560785694255754e-25,"369":-1.4164064107123517e-25,"370":-2.912697610798786e-25,"371":-4.93284271142636e-25,"372":-2.597292783015195e-25,"373":-5.288465911179506e-25,"374":-2.1943694224418607e-25,"375":-2.577558597031891e-25,"376":-6.231796528054573e-26,"377":-2.351912370543954e-25,"378":-1.1675434509848349e-25,"379":2.022475769468456e-25,"380":-3.283297762679716e-25,"381":-2.7063162096654434e-25,"382":-8.627477891004364e-25,"383":-2.4919986431510964e-25,"384":-2.3911087123274403e-25,"385":-2.957695932123049e-26,"386":-1.4021395714791794e-25,"387":-5.048993841977505e-25,"388":-3.054297446261994e-25,"389":-1.2268090408523111e-27,"390":-1.0483617140284777e-25,"391":-1.0469661234351438e-25,"392":-8.047490169852739e-26,"393":-1.1294520706049378e-25,"394":-6.441509126504242e-26,"395":-1.2889888799494955e-26,"396":-3.685674730210437e-25,"397":-1.2892052591417232e-25,"398":-7.362417349861467e-25,"399":-1.296125423312743e-25,"400":1.955536373752919e-25,"401":-1.3130030444334168e-24,"402":-6.777636426988654e-26,"403":-1.305808878227344e-25,"404":-1.1545954314066455e-25,"405":-1.0092006503612521e-25,"406":-5.1165834718464935e-26,"407":-6.237435041203155e-25,"408":-1.4200506751186631e-25,"409":-5.400544069290657e-26,"410":-5.636941345686481e-26,"411":-7.427076441103364e-27,"412":-3.736809054159301e-25,"413":-7.619785459299422e-26,"414":-9.16928462934369e-25,"415":-6.066715639020764e-26,"416":1.7620793572985342e-25,"417":-5.527207292359607e-25,"418":-2.2165360454794892e-25,"419":-3.176013261155511e-25,"420":-8.278561836633332e-26,"421":-2.3864977779578497e-25,"422":-1.6831973012458712e-25,"423":-1.63758450789484e-25,"424":-3.4246098125195254e-26,"425":-1.8052721923188666e-25,"426":-1.0170218733299054e-25,"427":-7.596332608232259e-27,"428":-2.157666123837981e-25,"429":-1.94562804991169e-25,"430":-6.899676253393359e-25,"431":-3.291946008287555e-25,"432":-5.0458493708608395e-25,"433":-6.56770824113788e-26,"434":-2.6094042485753096e-25,"435":-7.190344654061377e-25,"436":3.244082854600357e-26,"437":-4.1203485446540375e-25,"438":-1.9541616240646665e-25,"439":8.020949674403335e-26,"440":1.1802098725792857e-25,"441":-2.1057683563236395e-25,"442":-1.179703270906876e-25,"443":7.489402222242251e-29,"444":-2.3354677006147544e-25,"445":-2.383085139826532e-25,"446":-7.086469579047622e-26,"447":-3.817218466987834e-25,"448":-4.58822798120988e-25,"449":-4.256053666910027e-25,"450":-2.634658463409372e-25,"451":-7.368356362595782e-25,"452":-1.7869865771518715e-26,"453":-8.350901859437339e-25,"454":-2.0148714847013049e-25,"455":-1.4217487506389882e-25,"456":-1.71072949309418e-25,"457":-2.139578733147327e-25,"458":-1.0922164181894974e-25,"459":4.1775987039174704e-26,"460":-3.207936164480469e-25,"461":-2.416330999876369e-25,"462":-1.0594090095134001e-24,"463":-2.4397531093676765e-25,"464":1.1316340098457176e-25,"465":-7.721356962515714e-26,"466":-1.3903784460012144e-25,"467":-3.848327816550308e-25,"468":4.0935922226430844e-25,"469":-1.7193064567611e-25,"470":-1.0872250155805757e-25,"471":-8.995424269305601e-26,"472":-6.563245422039908e-26,"473":-1.1504830647205516e-25,"474":-9.359972369599542e-26,"475":-7.700844480137251e-26,"476":-2.9592854281321673e-26,"477":-1.216476067068695e-25,"478":-6.535948975916629e-25,"479":-5.68049460632073e-26,"480":-1.0908902221389056e-25,"481":-7.3606323423843215e-25,"482":-6.848554776178229e-26,"483":3.560367080325769e-25,"484":-2.8390592505040685e-25,"485":-6.235354569666417e-25,"486":-5.1162137098983863e-26,"487":-1.7796910616716889e-25,"488":-1.7150193826262434e-26,"489":-5.435352471663517e-26,"490":-8.666140758778353e-26,"491":-5.8187783649227145e-27,"492":-1.6147661751267706e-25,"493":-6.46504347007278e-26,"494":-7.300103173915497e-25,"495":-6.315447873997852e-26,"496":-6.978536582057262e-26,"497":-8.793291767457563e-25,"498":3.532646777119692e-27,"499":-2.0734792646087328e-26,"500":-2.9708647926657565e-25,"501":-2.9185407414623653e-25,"502":-1.871595724705378e-27,"503":-4.245857425235282e-25,"504":-4.057182941589239e-27,"505":-4.2891907283649955e-28,"506":-5.970975092444396e-26,"507":-8.69260528549461e-28,"508":-4.492427257164278e-25,"509":-2.7127474491958054e-27,"510":-1.4702170451849743e-24,"511":-6.61254026631853e-26,"512":-4.29151702589508e-25,"513":-4.328417231218323e-25,"514":-1.5405380970352735e-25,"515":-4.044226840661569e-25,"516":1.3580814069743246e-25,"517":-9.408556487645913e-26,"518":-1.2736548320876508e-25,"519":-9.715311076859352e-26,"520":2.3192579706265138e-26,"521":-1.3245949368959631e-25,"522":-8.770056437360386e-26,"523":7.552921113588684e-28,"524":-5.321719245513489e-25,"525":-1.3358327157576296e-25,"526":-4.336286415373998e-25,"527":-1.4309707111441705e-25,"528":-9.132132194144244e-27,"529":-6.992338250940011e-25,"530":-2.320044031759171e-25,"531":-3.679425627007054e-25,"532":-5.732517104567399e-26,"533":-2.260077035015579e-25,"534":-1.6967638966667672e-25,"535":2.439353114731635e-25,"536":-5.0142056315775705e-26,"537":-1.818377211457601e-25,"538":-9.643421763955665e-26,"539":3.2874532047968096e-26,"540":2.945008504466721e-26,"541":-2.106156767514403e-25,"542":3.7118773827861954e-27,"543":-1.6892062868360612e-25,"544":7.834930271086165e-26,"545":-7.873650099456096e-26,"546":-2.4972270473414985e-25,"547":-2.3243952843742648e-26,"548":-1.2094852114648656e-25,"549":-3.980336140139028e-25,"550":-1.7044395701420272e-25,"551":-3.9649623782979835e-25,"552":-1.9226525812489935e-25,"553":-1.8251138437415071e-25,"554":-1.2635845960908267e-25,"555":-2.597478222983682e-26,"556":-1.1215994864931065e-25,"557":-2.352866712409584e-25,"558":-5.0594209035576575e-25,"559":-2.2669100875102642e-26,"560":1.0996699770861016e-25,"561":-4.0566909806985025e-25,"562":-1.0769775095333044e-25,"563":-3.325755847389304e-25,"564":8.615273599073859e-26,"565":-6.818268500105591e-25,"566":-6.067723320954381e-26,"567":-3.862492032596292e-26,"568":1.177671467044241e-25,"569":-8.526709018579026e-26,"570":-7.797742122274212e-26,"571":-2.635177959639948e-26,"572":-3.996091415249455e-25,"573":-3.5908536536983115e-26,"574":-5.528392511013285e-25,"575":-2.164996763616208e-25}},{"sx":6,"sy":6,"depth":16,"w":{"0":-3.4828437567132666e-22,"1":-3.3482967378295326e-8,"2":5.93456125709405e-7,"3":-1.4235879487489359e-7,"4":-2.793808111429646e-16,"5":-5.772474516592118e-8,"6":-1.5117507963462884e-18,"7":-1.0464115641906248e-7,"8":5.933117896225004e-13,"9":1.7687829180168268e-17,"10":-1.3111412830715898e-23,"11":1.0999599315037674e-25,"12":5.080129256712259e-7,"13":2.4386151711723982e-12,"14":-0.000001122272961609805,"15":7.000297149431879e-7,"16":-2.4040251737673458e-22,"17":-2.73535950861154e-7,"18":-5.457219751533005e-7,"19":3.61187754436455e-8,"20":-1.1921648499002437e-16,"21":2.90740928839487e-7,"22":-9.325091166161715e-18,"23":4.742122571122645e-8,"24":4.706596637139262e-13,"25":1.0173155188910323e-17,"26":-1.1442976726946077e-23,"27":-2.506213287159229e-25,"28":5.299881259324594e-7,"29":1.880426504561308e-12,"30":2.404219093144818e-7,"31":9.991518321196856e-8,"32":-4.711758855812409e-22,"33":-2.3048532447301028e-7,"34":-9.315764242263948e-7,"35":-3.1919131944187396e-7,"36":3.5034326186790764e-16,"37":2.0622384587589006e-7,"38":-1.2582106638562213e-18,"39":1.2905752141599599e-7,"40":1.0184621615863329e-12,"41":-8.518260736210845e-18,"42":-1.994667131373641e-23,"43":-2.2011332725950148e-24,"44":-1.5543306087596197e-7,"45":2.124281446584464e-12,"46":3.683252974639736e-7,"47":-8.266984192580074e-7,"48":-1.3259828823683014e-22,"49":1.4868494946147865e-7,"50":-6.683494565116709e-7,"51":3.201742027064652e-8,"52":-3.659724765850862e-16,"53":-1.558564876638043e-8,"54":-3.3331819826649596e-18,"55":-3.2929344500734373e-7,"56":-3.0967979398375744e-12,"57":9.70004103586482e-18,"58":-3.819424463691498e-23,"59":1.7469433456906192e-24,"60":-7.100636782197834e-7,"61":2.3800959712656847e-12,"62":3.0360979716850204e-9,"63":-7.209314747703663e-7,"64":5.89438948787093e-22,"65":-2.1583275149509663e-7,"66":-2.6205322067992587e-7,"67":-2.247980496932065e-7,"68":-2.607235591966548e-16,"69":6.847821794994574e-8,"70":-1.99419585050353e-18,"71":-2.882892868769083e-7,"72":-9.556441404134167e-13,"73":9.442463670936541e-18,"74":-1.0246465600514428e-22,"75":7.722217571418774e-25,"76":-8.05318784271993e-7,"77":-1.7722259322891346e-12,"78":-1.526045194681242e-7,"79":-3.750812772048346e-7,"80":7.625085425910868e-22,"81":-5.116773180484212e-7,"82":-0.0000010341172763291856,"83":-1.1240352134971676e-7,"84":-9.106068065067815e-17,"85":-1.2829368269623827e-8,"86":-1.7402803754445547e-18,"87":-1.4832276446942782e-7,"88":-1.8371689034963476e-12,"89":1.1761983521482285e-17,"90":-5.759593393815037e-23,"91":-2.9077157389628728e-24,"92":-0.0000010697480320520443,"93":-1.906765206016049e-12,"94":-1.0694564728592084e-7,"95":-6.674745568698732e-7,"96":8.221560446413547e-23,"97":-1.4972238160141727e-7,"98":-4.910444783389887e-8,"99":-3.4280660118322476e-7,"100":5.373754325007411e-17,"101":-6.962325627618349e-7,"102":3.1794799078287227e-18,"103":-7.926780460182421e-8,"104":4.514295365887185e-13,"105":1.896492465579415e-17,"106":-2.590739563867269e-23,"107":-3.763046110272779e-25,"108":9.179660016007879e-7,"109":2.9460309112418662e-12,"110":-4.1220286029649377e-7,"111":8.097440537566601e-7,"112":-1.4468443120082356e-21,"113":-2.6709436515807334e-7,"114":-7.38562600030201e-7,"115":6.982962632209048e-8,"116":-1.4798269133018502e-16,"117":-7.20554908918252e-8,"118":1.2481163426825325e-18,"119":-3.153064697533244e-8,"120":2.3183789115641245e-12,"121":-3.7165947210068897e-19,"122":4.554995208243352e-23,"123":-3.7661486277889984e-25,"124":6.87726844862754e-7,"125":-1.3494348778363227e-13,"126":-6.576420302564521e-7,"127":6.639580931381307e-8,"128":-1.2992500889993027e-21,"129":-2.1357838391280574e-7,"130":-9.461281747060602e-7,"131":-1.5461133294722638e-7,"132":4.2459479962271306e-16,"133":-2.617507371102399e-7,"134":1.6473543560114527e-18,"135":-1.1701237424629952e-7,"136":-2.1109550709036995e-12,"137":5.617520415940624e-18,"138":3.327142199004541e-23,"139":4.225906700388247e-24,"140":-1.8051374968218254e-7,"141":1.557575017645649e-12,"142":-7.650978305960734e-7,"143":-0.0000010440503275778901,"144":-2.0164030960512857e-22,"145":1.1845819560119664e-7,"146":-7.849906729548304e-7,"147":-1.6091009411471457e-7,"148":2.0973248372177392e-16,"149":2.0381744452910146e-7,"150":-2.715940447656373e-18,"151":-5.268071429458929e-8,"152":1.811755814385993e-12,"153":9.606763961400527e-18,"154":2.4030448484957598e-23,"155":4.393671309179585e-26,"156":-0.0000011070104884905518,"157":1.1075477841630032e-12,"158":4.643926761394337e-9,"159":-0.000001356611321865678,"160":1.2633054672896287e-21,"161":-1.6463515392061437e-7,"162":-6.54425730931098e-7,"163":-3.963257815777172e-7,"164":1.6491097339351151e-16,"165":1.5375923727934028e-7,"166":-8.163149041900199e-19,"167":1.2200694100800477e-7,"168":7.185052475551088e-13,"169":9.138126222643565e-18,"170":-2.649767809907614e-23,"171":-1.0229743172197042e-24,"172":-7.994969375269165e-7,"173":-5.079860751442522e-13,"174":-2.915976024727103e-7,"175":-0.0000010355578521515912,"176":-1.2435578584857618e-21,"177":-2.990225728612056e-7,"178":-9.858907381907785e-7,"179":-1.9944089078259668e-7,"180":-1.4513869501397668e-16,"181":1.0074146977837941e-7,"182":-3.48142752268565e-18,"183":-4.7559197086056876e-8,"184":-1.4594332969347494e-12,"185":1.2912606231112681e-17,"186":-8.456682305978309e-24,"187":3.0746209607036157e-25,"188":-0.000001862423660883703,"189":7.243006328516902e-14,"190":-2.2998036210086719e-7,"191":-0.0000012746252591263929,"192":-8.326820474507132e-22,"193":-1.864759133342831e-7,"194":1.8671384833337098e-7,"195":-3.8986109003541837e-7,"196":-4.727659587566762e-16,"197":-0.0000010483590609440853,"198":3.829228687654778e-19,"199":7.079183686418685e-7,"200":-2.567130894323731e-12,"201":2.2748325111426112e-17,"202":5.667582907956044e-24,"203":-1.9714797757402108e-24,"204":8.368143042882606e-7,"205":-1.1179121578689074e-12,"206":-4.0983861946489423e-7,"207":7.764708647015053e-7,"208":-1.207131259643571e-21,"209":-7.833541463463847e-8,"210":-1.8999748303229057e-7,"211":5.56726183098152e-7,"212":-7.923021309046859e-16,"213":-4.1716255345975716e-7,"214":1.4856245851550676e-18,"215":2.6306530623322486e-7,"216":-7.836655177651523e-13,"217":-1.4052640560343423e-17,"218":-3.463880098563052e-23,"219":1.101539918749803e-26,"220":8.671224723314834e-7,"221":-2.9191104872801234e-12,"222":-0.0000013332244161742354,"223":7.157152194983248e-7,"224":-1.2854058516137608e-21,"225":3.2898497440156304e-7,"226":-1.2723052736434155e-7,"227":1.8985222010954092e-7,"228":-6.775568623824632e-16,"229":7.78039446209824e-7,"230":-4.542032647550581e-18,"231":1.5264673180561326e-7,"232":-1.2643182965868185e-11,"233":7.870778702814876e-19,"234":-7.691692214671825e-23,"235":-5.704622508059971e-25,"236":7.427497618020533e-7,"237":-4.179742300123033e-13,"238":-0.0000011487632619783533,"239":-4.972321076180864e-7,"240":-1.0319133734681172e-21,"241":-3.0819367997039246e-7,"242":-6.400207137972107e-7,"243":-6.853275714398474e-7,"244":-1.167283066075242e-16,"245":6.786331824974823e-7,"246":-1.9660252823733325e-18,"247":1.1259125924525933e-7,"248":-2.7042179509590404e-12,"249":-1.981635107909572e-18,"250":-6.370064617707802e-23,"251":1.3662622513209272e-24,"252":1.6085343764024594e-7,"253":2.0325348301077647e-12,"254":-7.802807453472603e-7,"255":-4.016432745439462e-7,"256":-1.6434273785051616e-21,"257":-1.8156907528878242e-7,"258":2.5471902346826305e-7,"259":5.260396542780759e-7,"260":-2.1100114042733635e-16,"261":4.3151543781808793e-7,"262":-9.716396576588879e-19,"263":2.410633115982718e-7,"264":-8.41564550098112e-13,"265":1.177205145437081e-17,"266":-4.489696781612071e-23,"267":-3.124335246484555e-25,"268":-5.281792677761178e-7,"269":1.5862988626384164e-12,"270":-2.523586750544372e-7,"271":-2.831203085855545e-7,"272":-8.969890930298833e-22,"273":-3.182619661194818e-7,"274":-6.137600906033086e-7,"275":5.8932589500223976e-8,"276":5.395323576693348e-17,"277":4.573044207201322e-7,"278":-4.327691883760737e-18,"279":2.159157421258081e-7,"280":-5.7641264630803964e-12,"281":1.6880879117825023e-17,"282":-4.3604942764147493e-23,"283":9.115039313492536e-25,"284":-0.000001018255157675642,"285":-3.056881487305809e-12,"286":-6.325403374611268e-7,"287":-5.333687298970431e-7,"288":-2.473347078193494e-22,"289":-1.1462970695175225e-8,"290":5.437362558176359e-7,"291":8.582171586256401e-8,"292":-2.1012440626977605e-16,"293":-1.1137545749486975e-7,"294":-1.0357784161931842e-19,"295":8.101580816602912e-8,"296":3.2352100473773604e-12,"297":1.494092067374972e-17,"298":1.2941519197715189e-23,"299":-4.891645586353398e-25,"300":0.0000015395115835500999,"301":-5.445181457123321e-13,"302":4.5046298617594574e-7,"303":0.0000012122820209537,"304":-3.898691774050957e-21,"305":2.6454831727833196e-7,"306":-9.097898518975288e-7,"307":-9.070571816586728e-7,"308":-2.1319225149592428e-17,"309":-6.634213769658365e-7,"310":-3.651556189598045e-18,"311":-6.385291703806675e-7,"312":3.2435157165092207e-12,"313":-2.493434408085217e-17,"314":1.9818715556132088e-25,"315":4.42237254422406e-25,"316":9.363693948115346e-9,"317":-4.220133564536855e-13,"318":9.380784294953676e-7,"319":1.774515461701831e-7,"320":-1.5151679297408276e-21,"321":-3.7635304541053023e-7,"322":-1.7834257327635192e-7,"323":-2.983376997378316e-7,"324":3.744859093960341e-16,"325":-5.920203087576758e-7,"326":-4.5659233952569116e-18,"327":-3.32888793801395e-7,"328":-3.6488584991603004e-12,"329":2.353107826076269e-18,"330":-2.7765154354770736e-23,"331":-2.9102071397716196e-24,"332":-1.9262057001591749e-7,"333":-1.844213411558849e-12,"334":-1.1408692972172974e-7,"335":1.661666880920376e-8,"336":3.532827644333337e-22,"337":-5.140503996757146e-7,"338":-3.690763805327425e-7,"339":-4.054240595313873e-8,"340":-3.4906902496026286e-17,"341":-4.7016087609766276e-7,"342":-6.5671503088874104e-18,"343":-1.5366051204767175e-7,"344":-5.964704395450435e-12,"345":1.3620160574130957e-18,"346":-1.780217312951988e-23,"347":-2.190878458358197e-24,"348":-1.0164712666568252e-7,"349":-1.3611276756521975e-12,"350":1.5255782523342718e-7,"351":1.5350400716190047e-7,"352":-1.1626289067345016e-21,"353":-0.0000011450473416795522,"354":4.2980889152070917e-7,"355":7.955280852982256e-9,"356":-3.422127673591948e-16,"357":-7.343982681272186e-7,"358":-3.3890767965262286e-18,"359":-1.4243801724378996e-7,"360":-9.093471434485858e-13,"361":-3.2110854266859387e-18,"362":-5.171674707356416e-23,"363":-3.3755676121345896e-24,"364":8.829745474030401e-8,"365":3.737275702413977e-12,"366":-6.156341674477848e-7,"367":4.392025532029451e-7,"368":1.14430442466478e-21,"369":4.3238310157865975e-7,"370":1.418085925492452e-7,"371":-1.153825944269673e-7,"372":-3.4878592843590077e-16,"373":-6.465991909220432e-7,"374":-3.8000664698594796e-18,"375":-2.0959540626413564e-7,"376":-1.3844377149436933e-12,"377":8.113411061580214e-18,"378":-5.827106532064065e-23,"379":-2.7841276862031523e-24,"380":-1.1009354378013382e-7,"381":3.393583088436826e-12,"382":4.042508316494286e-8,"383":2.4925672405310116e-7,"384":-2.8383084728357144e-21,"385":-6.259376197824035e-8,"386":-0.0000018411827243944807,"387":-4.285993653593218e-7,"388":-5.841754427054568e-17,"389":-4.6765877797505663e-7,"390":-5.243082393215574e-18,"391":-2.7784494555907716e-7,"392":8.269394677963058e-12,"393":4.706756634375865e-19,"394":2.1029010046557525e-23,"395":-2.8619469908591153e-25,"396":-0.000001615814027413141,"397":-1.946700747329588e-12,"398":0.0000016256249975677178,"399":-0.000001360879349045136,"400":-2.872858804908792e-21,"401":1.4638329058322757e-7,"402":-0.0000019826085272372615,"403":-1.2972116485457698e-7,"404":3.5033879138934435e-16,"405":-3.8600357037960377e-7,"406":-2.083442505434809e-18,"407":-6.068922610275576e-7,"408":-2.467348415153844e-12,"409":1.772778189406039e-19,"410":-7.728385107764996e-23,"411":-9.13754218004592e-25,"412":-0.0000012214230004960365,"413":-1.2056998032635974e-12,"414":3.270062660065017e-7,"415":-0.0000012566710794038314,"416":-2.237116499048582e-22,"417":-8.396504234229825e-8,"418":-0.0000014222634756587243,"419":1.8993505240331798e-7,"420":-9.622624087505067e-18,"421":-3.0510886433131404e-7,"422":-2.5133694812779752e-18,"423":1.1748638429350336e-7,"424":-9.974783574530388e-13,"425":8.117037006529799e-18,"426":-1.3705434925504178e-22,"427":-1.4173717724619962e-25,"428":-0.0000010562180505165664,"429":-1.981483608699398e-12,"430":-5.658842068775436e-7,"431":-0.0000010876879374386347,"432":1.0096853980503885e-22,"433":1.2171161726044073e-7,"434":-0.0000012720258355479196,"435":1.5926973192528736e-7,"436":2.63493507872508e-16,"437":-4.7508213081862594e-7,"438":-8.767026480733477e-18,"439":-1.6769439720597962e-7,"440":-4.691776087367783e-13,"441":4.661075282869214e-18,"442":-1.0534582845719041e-22,"443":-6.828189572298878e-25,"444":-0.0000013241406752053536,"445":-7.323113588122567e-13,"446":-4.268980875628321e-7,"447":-9.796383647117643e-7,"448":-2.1113688348840607e-21,"449":-2.5405386100912514e-7,"450":-0.000001094876789267456,"451":-2.4327186224959135e-7,"452":-4.350836693716403e-16,"453":-5.848400004282309e-7,"454":-4.030295796039117e-18,"455":-1.1909545067422015e-7,"456":-2.351246131028262e-12,"457":-4.34589834560646e-18,"458":-1.0831836122543488e-22,"459":1.7888647337105522e-25,"460":-0.0000011161398724231385,"461":-1.752764844093595e-12,"462":-1.5701392420275962e-7,"463":-8.778718011208091e-7,"464":-1.2868881923989829e-21,"465":4.68313269105881e-7,"466":-0.0000012502263037241347,"467":1.7561835297674866e-8,"468":-2.5916738520380084e-16,"469":-1.2230022800498003e-7,"470":-6.585976819718591e-18,"471":-1.1388373224314807e-7,"472":1.5013262715553644e-12,"473":-2.6656564605018082e-17,"474":-7.48054599797443e-23,"475":-7.720468823555908e-25,"476":-0.0000010264692042545052,"477":-1.036542994173209e-12,"478":-4.6563374648623715e-7,"479":-0.000001108241341531831,"480":-3.453841721052412e-21,"481":-6.266854371140477e-8,"482":-0.0000013867885570414738,"483":-6.7396422546262e-8,"484":5.267920418082534e-17,"485":-9.991954987731427e-8,"486":-2.300977578088465e-18,"487":7.935237332729915e-8,"488":-1.5905265194095007e-12,"489":3.493434327066358e-18,"490":-1.0874703999310067e-23,"491":-2.2197034741220948e-24,"492":-0.0000011721994297429046,"493":-1.426378941514641e-12,"494":-8.715875426860856e-7,"495":-0.000001160873759651254,"496":-2.521471468443224e-22,"497":-5.325638848078401e-9,"498":-0.0000010723387325336955,"499":-7.811068626282568e-8,"500":-3.7574986482920734e-16,"501":-1.719347066375525e-7,"502":-2.4851670262526334e-18,"503":-4.202476440300653e-7,"504":1.8467745857312157e-12,"505":1.2884526168114564e-17,"506":-1.135119214532476e-22,"507":-6.376030368076754e-25,"508":-6.637812601474009e-7,"509":1.7288610927807127e-13,"510":-5.369196211443846e-7,"511":-8.858196550932169e-7,"512":-2.6040890040121267e-22,"513":1.5039255983349893e-7,"514":-6.349365031763621e-7,"515":9.841536838826771e-8,"516":3.540863615419661e-16,"517":1.1851398148359638e-8,"518":-4.290002185362462e-18,"519":-6.636001650207184e-8,"520":1.0615304612639293e-12,"521":5.027257486504121e-18,"522":-1.1368660702814713e-22,"523":-2.1343677061995796e-26,"524":-7.742363095177737e-7,"525":1.0472588529816311e-12,"526":-4.2492586668497746e-7,"527":-5.810094313893329e-7,"528":-9.46441173696467e-22,"529":2.484484256309853e-7,"530":-5.664854100213006e-7,"531":-5.471223026334742e-8,"532":-1.5788541766531887e-16,"533":-1.330356465278498e-7,"534":-5.16764151063232e-18,"535":1.3005662555842254e-9,"536":-4.249584946585381e-12,"537":6.833757457777299e-18,"538":-9.277312833283057e-23,"539":3.396325045609465e-26,"540":-6.567364113591407e-7,"541":2.483010319855523e-13,"542":-3.3219628017121313e-7,"543":-6.222095532156394e-7,"544":-2.6701632805528813e-21,"545":-2.5626214567024366e-7,"546":-8.807155957774735e-7,"547":1.1113595779813825e-7,"548":-3.1884951045861837e-16,"549":7.378834563897055e-8,"550":-5.9995381690617346e-18,"551":-1.8723764129218106e-8,"552":1.2856134665077349e-12,"553":-9.323655069227066e-18,"554":-1.2233181229848694e-22,"555":1.1890006188628523e-24,"556":-6.695930495514265e-7,"557":-2.8770505612051627e-12,"558":-6.333039104243484e-7,"559":-6.079564405386005e-7,"560":-3.251584289941919e-21,"561":-5.724740532969286e-7,"562":-0.0000012808694368954152,"563":-3.3245010470560745e-7,"564":-5.540680418900701e-16,"565":-3.597535374760005e-8,"566":-6.5427213155872545e-18,"567":-1.9177743577594724e-8,"568":-2.219063094276335e-12,"569":-2.919649813493602e-17,"570":-1.5169925585769463e-22,"571":2.359648925682067e-24,"572":-0.0000011665025798292793,"573":-3.0176480395990902e-12,"574":-0.000001112849699414637,"575":-0.0000010181759557496292}},{"sx":6,"sy":6,"depth":16,"w":{"0":4.746832471914727e-21,"1":-2.3338794809531322e-7,"2":-0.03396821587887296,"3":-1.2864430882314561e-7,"4":1.4680163947953922e-16,"5":-0.06481940462115772,"6":-5.7798182329833795e-18,"7":-0.03823332754658474,"8":-4.6587557976972364e-12,"9":-8.96305935653013e-18,"10":-1.2185554111676903e-22,"11":1.4999487511096622e-25,"12":0.0028746811433801238,"13":-7.686575270863324e-13,"14":0.1211309295730046,"15":0.08366214178040894,"16":-1.0389606612837173e-22,"17":-2.406319385160588e-7,"18":-0.04677560045032987,"19":-4.4438080386086124e-8,"20":-1.2598967222573476e-17,"21":-0.07579938034188721,"22":6.136920851502004e-18,"23":0.06661348631599989,"24":-3.9258109106703455e-12,"25":1.4829926565337107e-17,"26":-5.196200076214519e-23,"27":1.099267576714942e-25,"28":-0.17654518538841263,"29":-2.1378560324289164e-13,"30":-0.032334308416180735,"31":-0.08099083591156934,"32":1.3659953460295802e-21,"33":-6.500928876881594e-8,"34":-0.09250667909895229,